[[array([[[[-6.73885737e-03, -6.41391566e-03, -1.01836836e-02,
          -3.42094980e-04, -1.57478839e-01, -4.00043675e-04,
           2.09410340e-01,  1.90915947e-04,  3.63934070e-01,
          -1.78720906e-01, -6.78751897e-03,  2.45869114e-06,
           1.77810527e-02, -6.64408784e-03, -5.22992611e-01,
           2.28257611e-01],
         [-4.88632871e-03, -5.88321686e-03, -6.50261790e-02,
          -2.23867988e-04, -9.70120654e-02, -4.83128038e-04,
           2.71719307e-01,  4.09593689e-04,  5.33463895e-01,
          -1.98148623e-01, -6.58735586e-03, -8.55516264e-05,
           6.82424614e-03, -6.47776062e-03, -6.37480021e-01,
           2.38370538e-01],
         [-7.10431393e-03, -6.67762058e-03,  6.60397261e-02,
          -2.00462076e-04, -5.32801375e-02, -5.46359108e-04,
           2.02608317e-01,  2.71270517e-04,  2.42306724e-01,
          -2.15219229e-01, -5.25760325e-03, -2.90093914e-04,
           1.20043801e-02, -5.08175557e-03, -2.92816758e-01,
           1.40176967e-01]],

        [[-1.08811231e-02, -1.15664396e-02, -4.85587083e-02,
          -3.79167555e-04,  2.68175721e-01, -3.65047948e-04,
           1.24252051e-01,  1.75641952e-04,  2.29737148e-01,
          -9.94281620e-02, -1.28348703e-02,  5.11345934e-05,
           5.53722167e-03, -1.30922180e-02, -2.87022203e-01,
           2.30226234e-01],
         [-7.97006302e-03, -9.71220993e-03, -8.24884698e-02,
          -1.93342159e-04,  3.27820510e-01, -4.74410539e-04,
           1.04679555e-01,  4.55466507e-04,  2.56378114e-01,
          -2.03041553e-01, -1.14388876e-02, -1.22850819e-04,
          -3.26966681e-03, -1.15966164e-02, -4.98907864e-01,
           2.94151634e-01],
         [-1.01228636e-02, -1.07307695e-02,  7.38375634e-02,
          -1.59450021e-04,  2.16062739e-01, -5.07761433e-04,
           1.00488417e-01,  2.74989754e-04,  2.92144209e-01,
          -1.06116295e-01, -1.05846813e-02, -2.62117450e-04,
           1.39717537e-03, -1.07310805e-02, -1.89349189e-01,
           9.74619314e-02]],

        [[-1.02796620e-02, -1.03044063e-02, -5.20823561e-02,
          -2.52886792e-04, -3.50259185e-01, -5.00610098e-04,
          -6.28087938e-01,  1.93279309e-04, -4.92201298e-02,
          -1.75687850e-01, -1.01810917e-02,  2.44394869e-05,
           2.76663508e-02, -1.06648793e-02, -2.38660306e-01,
           2.34429032e-01],
         [-7.64169917e-03, -8.73149186e-03, -8.27756822e-02,
          -5.21414077e-05, -2.51037151e-01, -6.41482126e-04,
          -6.88659370e-01,  4.66275815e-04, -1.40255019e-01,
          -2.82641828e-01, -9.53295548e-03, -1.27310806e-04,
           1.67896971e-02, -9.74748656e-03, -4.08515662e-01,
           3.05213571e-01],
         [-9.78694856e-03, -9.97303799e-03,  8.94037560e-02,
          -8.53244928e-05, -1.43040121e-01, -6.49954483e-04,
          -3.16132337e-01,  2.70483753e-04, -8.11107531e-02,
          -2.83817858e-01, -9.54964105e-03, -2.72043922e-04,
           1.91233773e-02, -1.00748409e-02, -1.69714510e-01,
           1.98596463e-01]]],


       [[[-1.04495566e-02, -1.07785100e-02,  8.18938110e-03,
          -2.40891939e-04,  6.46710768e-02, -3.20338993e-04,
           8.50718021e-01, -7.92645005e-05,  3.91739219e-01,
           5.56526482e-02, -1.24716889e-02,  1.93128508e-05,
           5.39621455e-04, -1.24466959e-02,  4.83021662e-02,
           1.40525037e-02],
         [-7.94217084e-03, -9.26816091e-03, -3.96452993e-02,
          -9.83834761e-05,  1.69597059e-01, -3.42182291e-04,
           8.89823258e-01,  4.04768012e-04,  5.27220011e-01,
           3.34861390e-02, -1.13930851e-02, -1.59525691e-04,
          -5.50592458e-03, -1.12761948e-02,  5.66915050e-02,
           4.52590082e-03],
         [-8.47189780e-03, -8.23808741e-03,  1.31255046e-01,
          -3.84574059e-06,  9.81076658e-02, -4.26762650e-04,
           5.29243648e-01,  4.13056805e-05,  3.34799379e-01,
          -4.18098532e-02, -7.47275818e-03, -2.53037811e-04,
           1.35219784e-03, -7.34913256e-03,  1.59206450e-01,
          -1.66915264e-02]],

        [[-1.24204429e-02, -1.34300087e-02, -3.89587972e-03,
          -1.72931163e-04,  3.66804242e-01, -3.82942177e-04,
           8.26012194e-02,  1.12590395e-04, -6.88595593e-01,
          -2.60772467e-01, -1.54738771e-02, -9.12524683e-06,
          -2.55718231e-02, -1.57671962e-02, -1.95551738e-01,
           3.84974450e-01],
         [-8.90300609e-03, -1.06035648e-02, -3.59372571e-02,
          -1.57723607e-05,  4.66511935e-01, -3.56434466e-04,
           8.89402777e-02,  3.72872775e-04, -6.60126805e-01,
          -2.93507278e-01, -1.30033903e-02, -1.43610625e-04,
          -2.81254407e-02, -1.31742302e-02, -1.60373092e-01,
           3.58826369e-01],
         [-9.39385407e-03, -9.89446044e-03,  1.49662584e-01,
           1.60529598e-05,  2.30455652e-01, -4.22297802e-04,
          -1.04411691e-01,  2.15271677e-04, -4.17420506e-01,
          -2.39793032e-01, -9.98908281e-03, -3.69335787e-04,
          -2.27914713e-02, -1.00375451e-02, -1.92974880e-01,
           2.17051059e-01]],

        [[-1.14297671e-02, -1.11584030e-02, -8.28773621e-03,
          -8.67669223e-05, -2.67402738e-01, -3.47615423e-04,
          -1.44795880e-01,  1.18952936e-04, -5.18559694e-01,
           5.42519018e-02, -1.16598662e-02, -4.38492279e-05,
          -5.96683379e-03, -1.19391317e-02,  3.16771090e-01,
           2.83208359e-02],
         [-7.98834860e-03, -8.94994009e-03, -4.92950641e-02,
           8.25864554e-05, -2.11167544e-01, -5.13362291e-04,
          -3.11076850e-01,  4.28924483e-04, -6.08031332e-01,
           2.17956677e-02, -1.00831501e-02, -2.63289839e-04,
          -1.27142994e-02, -1.03218593e-02,  2.71395504e-01,
           5.69952046e-03],
         [-8.92129261e-03, -8.77626799e-03,  1.32946432e-01,
           1.54059599e-04, -1.79763854e-01, -5.44632843e-04,
          -7.33791888e-02,  1.51689339e-04, -3.79384339e-01,
          -1.17499121e-02, -8.45032930e-03, -3.84158775e-04,
          -1.05835143e-02, -8.74624308e-03,  1.72472611e-01,
          -5.68777211e-02]]],


       [[[-1.19526954e-02, -1.24419769e-02,  2.69282963e-02,
          -8.77511993e-05, -1.76947102e-01, -1.24093713e-04,
           2.60677993e-01,  1.05771023e-05,  3.31517965e-01,
           1.51531965e-01, -1.37292622e-02, -1.53933914e-04,
           1.21928658e-02, -1.35987801e-02,  1.08210526e-01,
          -2.20184445e-01],
         [-8.89232010e-03, -1.01286918e-02, -2.09504068e-02,
           1.11455862e-04, -5.58857135e-02, -2.03545511e-04,
           3.29530567e-01,  3.81833728e-04,  4.13617015e-01,
           1.85488313e-01, -1.19236689e-02, -2.15940046e-04,
           6.53630029e-03, -1.19669065e-02,  3.42060149e-01,
          -2.93911517e-01],
         [-8.75959173e-03, -8.51161964e-03,  1.51335776e-01,
           4.53410830e-05, -3.70161757e-02, -2.50994606e-04,
           1.23267218e-01,  7.55701403e-05,  2.38916934e-01,
          -3.60821038e-02, -7.12334411e-03, -3.91407986e-04,
           1.29876053e-02, -7.07606273e-03,  2.66678691e-01,
          -1.42157435e-01]],

        [[-1.32759297e-02, -1.38650080e-02, -3.69487628e-02,
          -1.31567533e-04,  3.10610235e-01, -1.78897390e-04,
           9.38376486e-02,  7.25898935e-05, -1.08440042e-01,
           3.33342820e-01, -1.52561674e-02, -1.13612077e-04,
          -2.32758801e-02, -1.52233634e-02,  6.03506625e-01,
          -2.55004942e-01],
         [-9.32867639e-03, -1.07974159e-02, -6.80872649e-02,
           1.76020039e-04,  3.91997397e-01, -2.84191337e-04,
           4.44905311e-02,  3.13643628e-04, -1.55154139e-01,
           3.32619041e-01, -1.25051951e-02, -2.97769788e-04,
          -2.71598212e-02, -1.24873808e-02,  7.66579568e-01,
          -3.14489812e-01],
         [-9.55014303e-03, -9.91853233e-03,  1.10747814e-01,
           6.77658754e-05,  2.91356951e-01, -2.68300151e-04,
          -1.75205208e-02,  2.22505536e-04, -2.63694078e-02,
           1.61866039e-01, -8.99854582e-03, -3.87960958e-04,
          -2.36064028e-02, -8.81632138e-03,  4.27049667e-01,
          -1.98275849e-01]],

        [[-9.88001656e-03, -8.43708869e-03,  1.33142658e-02,
          -3.78807017e-05, -1.88733160e-01, -3.00945860e-04,
          -4.51096237e-01,  7.08689622e-05, -3.45934272e-01,
           9.10498276e-02, -7.73345493e-03, -1.21007972e-04,
          -1.36730066e-02, -7.45464256e-03,  4.07819718e-01,
          -9.65586901e-02],
         [-5.77971991e-03, -5.44661004e-03, -3.33996303e-02,
           2.12231622e-04, -1.49915308e-01, -3.38213635e-04,
          -5.73495984e-01,  3.89415451e-04, -4.01244760e-01,
           1.48480594e-01, -5.63409412e-03, -2.38946348e-04,
          -2.12300010e-02, -5.40662184e-03,  5.04289865e-01,
          -2.08257467e-01],
         [-6.21054601e-03, -5.04295155e-03,  1.30441949e-01,
           1.59046802e-04, -5.63479736e-02, -3.92622751e-04,
          -2.84881800e-01,  7.48343373e-05, -3.14718813e-01,
          -2.76785884e-02, -3.49238259e-03, -3.88241548e-04,
          -2.12901905e-02, -3.30335950e-03,  2.45688692e-01,
          -9.92939323e-02]]]], dtype=float32)],
 [array([-2.0429304, -2.030659 , -1.1370045, -2.643419 ,  3.033093 ,
       -3.0571198,  3.397124 , -1.6928122,  1.5508884,  1.7181716,
       -1.99554  , -2.5935054, -1.6472032, -1.9952323,  3.6243114,
        2.910824 ], dtype=float32),
  array([-0.05266063, -0.05522169,  0.06613186, -0.0003895 ,  0.16771558,
       -0.00223314,  0.1448495 ,  0.00129613, -0.1533518 , -0.22032818,
       -0.05916848, -0.00102616, -0.01348944, -0.05944473,  0.1806992 ,
        0.24026506], dtype=float32),
  array([1.7933892e-02, 1.9676171e-02, 5.5734262e-02, 9.1957304e-07,
       2.0224029e-01, 3.2759344e-05, 1.6865945e-01, 1.0928899e-05,
       1.7840491e-01, 3.5314524e-01, 2.2430217e-02, 7.3002188e-06,
       1.9368560e-03, 2.2637628e-02, 2.4769388e-01, 3.6976004e-01],
      dtype=float32)],
 [array([[[[ 3.20462999e-03,  1.02288332e-02,  1.17052356e-02, ...,
           6.41177595e-03,  8.85183748e-04, -1.80742296e-03],
         [ 2.98850518e-03,  1.03220334e-02,  1.39855612e-02, ...,
           7.51610473e-03,  1.05532771e-03, -1.38064870e-03],
         [-7.33194815e-04,  4.19916026e-03, -6.46980330e-02, ...,
          -5.03280759e-03,  2.66794930e-03, -1.30259041e-02],
         ...,
         [ 3.05459253e-03,  1.06272791e-02,  1.74532216e-02, ...,
           8.03008303e-03,  1.64954620e-03, -1.35861081e-03],
         [ 2.57724407e-03,  3.46014947e-02, -7.04323277e-02, ...,
          -1.35714933e-03, -7.49370176e-03,  5.35153178e-03],
         [ 1.72137283e-03, -1.17975034e-01, -1.71372309e-01, ...,
           7.52355438e-03, -1.25079313e-02, -6.21627197e-02]],

        [[ 3.60511173e-03,  7.13164732e-03,  9.17459745e-03, ...,
           6.90965448e-03,  7.10905704e-04, -2.54860206e-04],
         [ 3.38487932e-03,  7.03122094e-03,  1.12610953e-02, ...,
           8.17109365e-03,  1.02181546e-03,  4.39594616e-04],
         [-5.96775964e-04,  9.17199720e-03,  4.72994428e-03, ...,
          -4.85882629e-03,  4.11090767e-03, -1.22837787e-02],
         ...,
         [ 3.41267651e-03,  7.34008709e-03,  1.48862358e-02, ...,
           8.63544643e-03,  1.47789542e-03,  8.83321511e-04],
         [ 2.68858927e-03, -2.41007835e-01,  1.52913883e-01, ...,
          -2.11446360e-03, -3.12603009e-03, -5.41288331e-02],
         [ 1.62105158e-03,  3.21899503e-02, -1.90244555e-01, ...,
           6.77704997e-03, -1.32221254e-02, -6.63481355e-02]],

        [[ 3.79321352e-03,  4.73134639e-03,  8.57447926e-03, ...,
           6.88572880e-03,  8.40039807e-04, -3.73892882e-03],
         [ 3.61433881e-03,  5.04850550e-03,  1.01367179e-02, ...,
           7.94530287e-03,  1.07324554e-03, -3.32140317e-03],
         [-5.76299266e-04,  1.48206120e-02,  1.48358883e-03, ...,
          -4.48049419e-03,  5.21392003e-03, -1.40081234e-02],
         ...,
         [ 3.86630814e-03,  4.58164467e-03,  1.35515304e-02, ...,
           8.35484266e-03,  1.53597794e-03, -3.18158534e-03],
         [ 2.32347520e-03,  1.85152233e-01, -6.99085891e-02, ...,
           4.19923989e-03,  4.47295548e-04,  5.27994893e-02],
         [ 9.26035224e-04,  8.53071511e-02, -1.11158408e-01, ...,
           2.68343766e-03, -1.64752398e-02, -4.23164964e-02]]],


       [[[ 3.40305408e-03,  9.19342157e-04,  4.28330619e-03, ...,
           6.83438871e-03,  4.27523599e-04, -1.91515754e-03],
         [ 3.08765774e-03, -2.01855801e-04,  6.15241565e-03, ...,
           8.03389400e-03,  7.14763941e-04, -1.58657844e-03],
         [-7.14219990e-04,  4.31576781e-02,  1.39970323e-02, ...,
          -5.46047371e-03,  3.42283747e-03, -1.29985372e-02],
         ...,
         [ 3.19310254e-03, -1.45883323e-03,  9.05185472e-03, ...,
           8.41959100e-03,  1.14069844e-03, -1.58170867e-03],
         [ 2.20859749e-03,  2.79163003e-01,  3.99841279e-01, ...,
           1.24893477e-03,  3.26291728e-03, -8.72503407e-03],
         [ 1.75540231e-03,  6.50162473e-02, -7.69232884e-02, ...,
           1.75864471e-03, -1.62020084e-02, -5.39676622e-02]],

        [[ 3.58127127e-03,  1.47550711e-02, -4.20876918e-03, ...,
           6.92897290e-03,  3.13299213e-04, -1.16577151e-03],
         [ 3.44018941e-03,  1.54492874e-02, -3.62795312e-03, ...,
           7.89217092e-03,  4.75544017e-04, -4.56937763e-04],
         [-7.57212460e-04, -1.49928043e-02,  9.47860628e-02, ...,
          -4.79034148e-03,  4.79620416e-03, -1.18913660e-02],
         ...,
         [ 3.46866250e-03,  1.63702704e-02, -1.42222224e-03, ...,
           8.18615127e-03,  1.04284787e-03, -2.51582300e-04],
         [ 1.81378843e-03, -2.45571494e-01,  2.34432667e-01, ...,
           1.16270557e-02,  7.03522516e-03,  1.97827853e-02],
         [ 1.73813163e-03, -1.88974470e-01,  7.55449384e-02, ...,
           4.68614948e-04, -1.34604387e-02, -1.03921875e-01]],

        [[ 3.71398404e-03,  8.92720465e-03,  3.57669964e-03, ...,
           6.73201075e-03,  2.91377801e-04, -5.72083425e-03],
         [ 3.58198280e-03,  9.52254236e-03,  4.42664605e-03, ...,
           7.63566373e-03,  4.81192721e-04, -5.39587811e-03],
         [-6.48700108e-04,  3.31930723e-03,  3.19433846e-02, ...,
          -4.51208651e-03,  5.21075912e-03, -1.39741823e-02],
         ...,
         [ 3.61213787e-03,  9.47590917e-03,  7.33461184e-03, ...,
           7.90164247e-03,  1.01812254e-03, -5.70463482e-03],
         [ 1.97463739e-03,  2.08395571e-02, -7.40021169e-02, ...,
           7.81826768e-03,  4.99561708e-03,  5.02043637e-04],
         [ 1.08953740e-03,  2.35558510e-01, -4.45161536e-02, ...,
           1.39684766e-03, -1.32098906e-02, -3.10589820e-02]]],


       [[[ 3.35485791e-03,  2.52175261e-03, -4.54122084e-04, ...,
           6.68943813e-03, -4.18544514e-05, -4.31115413e-03],
         [ 3.13729048e-03,  1.87444990e-03,  7.89981685e-04, ...,
           7.61002116e-03,  2.14433894e-04, -4.02349839e-03],
         [-7.38744566e-04,  7.63646513e-03,  2.42009927e-02, ...,
          -4.69454378e-03,  3.83781292e-03, -1.55852167e-02],
         ...,
         [ 3.11619462e-03,  8.86079564e-04,  2.85175862e-03, ...,
           7.81540945e-03,  6.86239218e-04, -4.42843046e-03],
         [ 4.39109979e-03, -1.92309976e-01,  2.45123301e-02, ...,
           1.34609910e-02,  7.98158534e-03,  5.52410968e-02],
         [ 1.77817373e-03,  2.24725455e-01,  1.70598999e-01, ...,
           1.58056314e-03, -1.31002944e-02, -5.60356788e-02]],

        [[ 3.46477237e-03,  1.51494211e-02, -6.61770208e-03, ...,
           6.33751927e-03, -9.46987202e-05, -5.67533495e-03],
         [ 3.25556402e-03,  1.63364429e-02, -6.73609227e-03, ...,
           7.22546922e-03,  6.30212162e-05, -5.40777855e-03],
         [-7.63893244e-04, -2.87804138e-02,  5.69319837e-02, ...,
          -4.03521303e-03,  4.39366000e-03, -1.53237861e-02],
         ...,
         [ 3.27523891e-03,  1.75065231e-02, -5.32640563e-03, ...,
           7.39455177e-03,  4.93770349e-04, -5.84057346e-03],
         [ 3.44909448e-03,  1.22628108e-01,  4.11879309e-02, ...,
           1.24227731e-02,  7.94830360e-03,  3.44547778e-02],
         [ 1.47927203e-03, -1.72090888e-01,  1.42201915e-01, ...,
           4.32728324e-03, -1.05533740e-02, -5.42928167e-02]],

        [[ 3.55457608e-03,  1.23160379e-02,  3.61533975e-03, ...,
           6.32599182e-03, -1.37848037e-04, -8.65856372e-03],
         [ 3.46543849e-03,  1.25975637e-02,  4.48330864e-03, ...,
           7.15253875e-03, -4.08682827e-05, -8.62950739e-03],
         [-7.66973069e-04, -2.96971705e-02,  1.38543854e-02, ...,
          -4.17986745e-03,  4.80053714e-03, -1.69145763e-02],
         ...,
         [ 3.50896060e-03,  1.26998769e-02,  7.22963922e-03, ...,
           7.43132597e-03,  4.52446169e-04, -9.56499577e-03],
         [ 3.18755838e-03,  8.17935541e-02,  6.23581000e-03, ...,
           1.10861491e-02,  6.39623078e-03,  3.80510129e-02],
         [ 1.22153142e-03, -3.81443836e-02, -1.91855095e-02, ...,
           3.58838029e-03, -1.04739675e-02, -5.00556752e-02]]]],
      dtype=float32)],
 [array([-1.8114926,  2.40574  ,  2.0532851, -1.446905 ,  0.8668602,
       -1.3054507, -0.6542452,  2.4461699, -1.8496007,  0.7308703,
        1.7435992, -1.6347945,  2.7869613, -1.8851665,  2.9712884,
       -1.6907128,  0.9318977, -1.1197721,  3.4165094, -1.5543836,
        2.0520942, -1.8312451, -1.8612864, -1.8006619,  2.6530573,
        1.7966042, -0.7582783,  1.081285 , -1.5388825, -1.5492269,
       -1.535967 , -1.0247709], dtype=float32),
  array([ 2.1026306e-01, -2.5942073e+00, -7.9927599e-01, -2.0131288e-01,
       -1.0554372e+01,  7.4498397e-01, -1.1118485e+00,  1.9204299e-01,
        2.5998691e-01, -2.7038622e+00,  2.7458086e+00, -3.0818769e-01,
        4.5186992e+00,  7.4217916e-02, -3.2324407e+00,  4.0377740e-02,
       -2.2173474e+00, -7.2329111e-02, -3.2591901e+00,  6.2057637e-03,
       -3.9166834e+00,  1.2546892e-01,  3.2279615e-03,  1.0218635e-01,
       -1.4497608e+00, -7.2446418e-01,  1.4428902e+00,  7.3167152e+00,
        7.8112230e-04,  4.1278356e-01, -6.7900139e-01,  1.7845979e-01],
      dtype=float32),
  array([9.48001072e-03, 2.34201908e-01, 3.22454393e-01, 5.07927760e-02,
       9.17904258e-01, 3.60771120e-02, 2.23222613e-01, 3.11498553e-01,
       1.29696336e-02, 4.34659481e-01, 4.54958349e-01, 7.88863078e-02,
       2.16386700e+00, 2.15422129e-03, 2.41010666e-01, 7.76583038e-04,
       4.42965865e-01, 5.84682226e-02, 2.76040077e-01, 3.64114676e-05,
       1.52139950e+00, 4.29187436e-03, 1.84522996e-05, 3.25551489e-03,
       1.91990852e+00, 1.79233265e+00, 2.26342082e-01, 8.61983836e-01,
       3.33242824e-05, 5.66609688e-02, 1.01669975e-01, 1.77277580e-01],
      dtype=float32)],
 [array([[[[ 9.80484649e-04, -8.59168009e-04,  4.44926834e-03, ...,
          -3.27600166e-03,  2.58303178e-03, -7.00259930e-04],
         [ 3.91171053e-02,  8.40735063e-03,  2.00608131e-02, ...,
           3.16123925e-02, -3.56385228e-03, -7.06327111e-02],
         [-2.95112524e-02, -3.04246899e-02,  6.10067137e-02, ...,
          -2.95010768e-02,  1.91694479e-02,  1.45283565e-02],
         ...,
         [-6.09241135e-04, -3.00524058e-03,  9.54423007e-03, ...,
          -1.28016118e-02,  3.45963798e-03, -6.12621335e-03],
         [-5.05850185e-03, -1.62441283e-03,  1.58237778e-02, ...,
          -4.08457965e-03,  5.33435401e-03, -2.20700307e-03],
         [-2.31296313e-03, -4.37200710e-04,  2.09373366e-02, ...,
          -5.42161502e-02,  5.23201516e-03, -1.43969599e-02]],

        [[ 4.85291588e-04, -6.77409756e-04,  4.41259053e-03, ...,
          -3.02091194e-03,  2.49384227e-03, -1.94587919e-04],
         [-5.46137011e-03,  5.14272638e-02, -4.76536760e-03, ...,
          -5.85251823e-02, -6.13724347e-03, -8.73375386e-02],
         [-1.14632798e-02,  2.58959066e-02, -1.71194617e-02, ...,
          -4.12753895e-02,  2.07703244e-02,  1.18129529e-01],
         ...,
         [-7.38756207e-04, -2.89895851e-03,  9.71154030e-03, ...,
          -9.81871877e-03,  3.02677439e-03, -2.22062459e-03],
         [-2.49909586e-03,  4.58973082e-04,  1.62362140e-02, ...,
          -1.08213816e-03,  3.02788336e-03,  1.07866654e-03],
         [ 6.95092278e-03, -1.18616307e-02,  3.48713025e-02, ...,
          -5.62254861e-02,  1.13995909e-03, -2.98463134e-03]],

        [[ 8.48307507e-04, -6.07989263e-04,  4.42509446e-03, ...,
          -2.80394079e-03,  2.72764126e-03,  2.10507533e-05],
         [-8.59973952e-03,  2.02917326e-02, -3.69122885e-02, ...,
           6.53181002e-02, -2.44497391e-03,  2.43215952e-02],
         [ 3.55932340e-02,  1.70972699e-03, -5.09919226e-03, ...,
          -2.81653646e-02,  1.03605473e-02,  6.14847653e-02],
         ...,
         [-8.37904634e-04, -2.46919179e-03,  1.01031149e-02, ...,
          -7.13900197e-03,  3.46336956e-03, -1.68822135e-03],
         [-4.01018234e-03, -9.31821996e-04,  1.28220478e-02, ...,
           1.43091835e-04,  2.87059532e-03,  8.35420913e-04],
         [-1.17562190e-02, -1.66531038e-02,  3.22985239e-02, ...,
          -3.41316499e-02,  2.32874556e-03, -1.51572041e-02]]],


       [[[ 8.88337032e-04, -9.13452473e-04,  4.33529494e-03, ...,
          -2.26885476e-03,  2.80729472e-03, -3.04631074e-04],
         [ 7.05776969e-03,  5.79852611e-02,  1.48528228e-02, ...,
           3.19616608e-02, -1.81055942e-03,  3.10952049e-02],
         [ 2.11441587e-03, -3.40553410e-02,  1.61392018e-02, ...,
          -2.86186370e-03,  2.04834696e-02,  8.29337761e-02],
         ...,
         [-1.78494724e-04, -2.80683627e-03,  9.36141703e-03, ...,
          -1.03306854e-02,  3.35925934e-03, -3.93444300e-03],
         [-2.23255483e-03, -1.34393480e-03,  1.68303829e-02, ...,
          -7.51668704e-04,  5.50843496e-03, -1.93539439e-04],
         [ 1.08364793e-02, -1.63589381e-02,  5.26160337e-02, ...,
          -3.82552408e-02,  3.60602466e-03, -1.70398299e-02]],

        [[ 6.48932939e-04, -8.20201007e-04,  4.35495563e-03, ...,
          -2.05731299e-03,  2.42860592e-03, -2.19254161e-05],
         [ 6.59683067e-03, -1.05131999e-01,  3.24750207e-02, ...,
          -4.76949774e-02, -8.25606659e-03, -5.49685350e-03],
         [ 3.09145339e-02, -3.02408915e-02, -1.16241099e-02, ...,
           2.21620742e-02,  1.95990037e-02, -6.46254346e-02],
         ...,
         [-9.38092417e-04, -2.20513064e-03,  1.01628155e-02, ...,
          -7.96218403e-03,  2.62141111e-03, -1.48196367e-03],
         [-2.11044704e-03, -2.34740740e-03,  1.67143717e-02, ...,
           2.83048628e-03,  3.10003385e-03,  1.10080361e-03],
         [ 5.02449730e-05, -2.50574369e-02,  5.35412915e-02, ...,
          -5.52249178e-02, -1.53016357e-03, -1.25191929e-02]],

        [[ 7.73659267e-04, -7.93775078e-04,  4.36660647e-03, ...,
          -1.74176448e-03,  2.53053685e-03, -1.13362337e-04],
         [-7.89340935e-04, -2.08701417e-02, -2.35516205e-02, ...,
           1.15251541e-01,  9.69937723e-03,  5.70284668e-03],
         [ 3.69964214e-03, -2.15265551e-03, -1.91185120e-02, ...,
           3.08737680e-02,  2.64317915e-03, -7.13280365e-02],
         ...,
         [-9.30948183e-04, -2.45012995e-03,  1.02575729e-02, ...,
          -5.84416464e-03,  2.85379076e-03, -1.05545996e-03],
         [-4.85408353e-03, -3.66686145e-03,  1.31520731e-02, ...,
           3.34212789e-03,  2.49745743e-03, -1.22559024e-04],
         [-1.08505180e-02, -2.71196235e-02,  5.47876470e-02, ...,
          -1.60151664e-02,  2.70520628e-04, -1.16384411e-02]]],


       [[[ 1.13557698e-03, -1.00678194e-03,  4.37407475e-03, ...,
          -1.21128384e-03,  3.10198241e-03, -4.43013356e-04],
         [ 4.03131329e-04, -9.16619599e-03,  4.11163867e-02, ...,
          -1.71582419e-02,  3.57132842e-04, -1.23362280e-02],
         [ 1.38361137e-02,  1.47674102e-02, -9.72116645e-03, ...,
           1.66822243e-02,  1.29776560e-02,  2.82402672e-02],
         ...,
         [-3.02127097e-04, -2.94444477e-03,  9.48671252e-03, ...,
          -7.91420415e-03,  4.15739184e-03, -2.76005431e-03],
         [-2.36617937e-03, -1.98350730e-03,  1.33576365e-02, ...,
           9.85249295e-04,  6.11785008e-03, -7.40028860e-04],
         [ 1.48903462e-03, -1.90729536e-02,  6.37623817e-02, ...,
          -3.26111987e-02,  1.93867320e-03, -2.31584571e-02]],

        [[ 8.97624763e-04, -9.13582393e-04,  4.25850274e-03, ...,
          -8.83531175e-04,  2.66299257e-03,  5.71157252e-05],
         [ 1.86511483e-02,  2.72235777e-02,  7.94155989e-03, ...,
          -2.16291361e-02, -8.44789948e-03, -5.58515266e-03],
         [ 2.29726220e-03,  6.49018660e-02, -4.41813245e-02, ...,
          -2.19712649e-02,  1.70464516e-02, -1.03648312e-01],
         ...,
         [-6.99807191e-04, -2.71413336e-03,  9.85319540e-03, ...,
          -5.08433254e-03,  2.86752335e-03, -1.38612522e-03],
         [-3.79305216e-03, -2.06196820e-03,  1.32130831e-02, ...,
           4.41764295e-03,  3.17441067e-03,  8.44463939e-05],
         [-4.24255338e-03, -2.94704977e-02,  5.78815416e-02, ...,
          -5.36986813e-02, -3.81958694e-03, -2.39548683e-02]],

        [[ 1.01535325e-03, -7.61847827e-04,  4.27315570e-03, ...,
          -6.44732092e-04,  2.66116764e-03, -1.43696889e-04],
         [ 1.70889385e-02, -2.19039116e-02, -8.04556650e-04, ...,
          -5.73457070e-02,  1.05543220e-02, -3.46185900e-02],
         [ 6.30008872e-04, -5.06890416e-02,  1.97236426e-02, ...,
          -2.68282890e-02,  5.04456169e-04, -6.73229471e-02],
         ...,
         [-4.84809541e-04, -2.60400213e-03,  9.36638936e-03, ...,
          -1.59368513e-03,  3.12802033e-03, -4.39525495e-04],
         [-5.61902998e-03, -7.42056698e-04,  1.08190710e-02, ...,
           6.71480037e-03,  2.70282570e-03, -3.05029936e-03],
         [-1.13957562e-02, -2.97426078e-02,  5.30350208e-02, ...,
          -3.35788867e-03,  6.45863940e-04, -4.25163433e-02]]]],
      dtype=float32)],
 [array([-2.2014456 , -1.0597124 , -1.4144447 , -1.4445088 , -2.2119699 ,
       -2.5401673 , -2.2575107 , -2.481242  , -2.1385841 ,  2.8147497 ,
       -0.08374559, -0.5826274 , -1.964726  , -1.8785297 , -0.26393193,
        1.9078475 , -1.7955477 , -1.5743543 , -0.2544945 , -1.9357874 ,
        0.9413238 ,  1.0833668 , -1.108091  ,  2.0573974 , -1.1032796 ,
        1.3269174 ,  1.4909943 , -2.199864  , -2.0720437 , -0.94486445,
       -2.2300408 , -1.1578968 ], dtype=float32),
  array([ 1.2349124e+00,  5.8674741e-01, -1.2472240e+00, -7.3885739e-01,
        1.5434553e-01,  5.8212107e-01,  5.8402413e-01,  4.3630880e-01,
        2.7868351e-01, -7.4535875e+00, -1.6471015e+00,  2.1079288e+00,
        7.3749435e-01,  1.6024776e+00, -8.8983446e-01, -7.0047522e-01,
       -6.0373638e-03, -2.3771274e-01,  6.9398022e-01,  1.2582663e+00,
        1.5774862e+00,  7.4751014e-01,  1.2173364e+00, -3.0315619e+00,
       -1.7469853e-01, -2.2042885e+00, -5.5802302e+00,  2.1011209e-01,
        6.4915669e-01, -2.0378683e+00,  1.6095771e-02, -1.8532176e+00],
      dtype=float32),
  array([3.5235912e-01, 7.5355846e-01, 7.0813686e-01, 3.1098846e-01,
       3.7989214e-01, 1.4894490e-01, 3.5707235e-01, 1.5158361e-01,
       1.8871735e-01, 4.2890816e+00, 2.1292410e+00, 8.6998868e-01,
       7.5464457e-01, 1.0860499e+00, 1.7947613e+00, 2.1154356e+00,
       6.1834813e-05, 2.2549252e-01, 1.1518670e+00, 2.8055379e-01,
       1.6343389e+00, 3.3237288e+00, 9.1565186e-01, 7.4336004e+00,
       6.7027897e-01, 7.5840564e+00, 5.7024980e+00, 1.4009419e-01,
       1.5057872e-01, 1.1527847e+00, 1.4270799e-01, 8.8483977e-01],
      dtype=float32)],
 [array([[[[ 3.27407755e-03,  1.52774493e-03,  2.36356445e-03, ...,
          -7.38005247e-03,  2.43871182e-04,  5.24789467e-03],
         [-6.07757978e-02,  4.14720591e-04, -4.98895049e-02, ...,
           4.55372036e-02, -5.41273654e-02,  1.47117842e-02],
         [ 2.39580236e-02, -2.00294680e-03, -2.26519909e-02, ...,
           1.70018990e-02,  2.55605439e-03, -1.29601161e-03],
         ...,
         [ 1.65175498e-02,  1.31957987e-02, -2.27589179e-02, ...,
          -1.18070524e-02, -7.70284934e-03, -2.95244139e-02],
         [-1.17806597e-02, -4.90084849e-03,  1.09956609e-02, ...,
          -1.33570342e-03, -4.13809670e-03,  7.99365458e-04],
         [-3.64580154e-02,  3.79956071e-03,  1.91329475e-02, ...,
           5.70574077e-03,  1.21471370e-02,  2.16142647e-02]],

        [[ 1.10332025e-02, -9.66495369e-03, -4.26138006e-03, ...,
           6.82329759e-03,  1.30032934e-02,  1.85790472e-02],
         [ 2.88262572e-02, -3.37237865e-03,  4.16675862e-03, ...,
          -1.26086762e-02,  1.68064609e-02, -9.14036855e-02],
         [ 2.63089761e-02,  1.93235802e-03, -2.68602781e-02, ...,
           4.03181612e-02,  3.92929576e-02,  1.17269587e-02],
         ...,
         [ 7.95210749e-02,  1.57148913e-02, -1.43698743e-03, ...,
          -2.27543414e-02, -2.00441889e-02, -4.15916974e-03],
         [-5.64567745e-03, -6.29901001e-03,  9.99667961e-03, ...,
          -1.11448942e-02, -6.69256086e-03,  9.24847845e-04],
         [ 3.00180819e-02, -6.17462583e-03,  1.64474435e-02, ...,
          -1.57984458e-02, -1.94543935e-02,  7.79544353e-04]],

        [[ 2.74595805e-04, -5.76297240e-03,  2.00939202e-03, ...,
           1.43950768e-02, -2.20888737e-03,  1.52848400e-02],
         [-4.80008833e-02,  2.52337437e-02, -1.38207246e-02, ...,
          -3.90143394e-02, -1.58197805e-02, -2.42440123e-02],
         [-1.47944372e-02, -4.29201648e-02, -1.72240343e-02, ...,
           1.98487081e-02,  1.53483320e-02,  6.85956189e-03],
         ...,
         [ 1.98535016e-03,  2.74215713e-02,  4.13011536e-02, ...,
          -1.86107692e-03, -4.06336710e-02,  7.25780288e-03],
         [-1.98780298e-02, -1.72386644e-03,  5.93551341e-03, ...,
          -7.64699979e-03, -6.03881781e-04,  3.33869830e-03],
         [-6.23651408e-02, -4.46293131e-02,  1.08050061e-02, ...,
          -2.44902205e-02, -4.51114178e-02,  2.92513752e-03]]],


       [[[ 9.96187329e-04, -1.01767480e-02,  2.90632248e-03, ...,
          -8.23457539e-03, -5.56389755e-03, -4.60024318e-03],
         [ 6.45963550e-02,  1.28023382e-02, -6.52795434e-02, ...,
          -6.81417882e-02, -5.96420579e-02,  2.18906142e-02],
         [ 1.59930736e-02, -2.36156839e-03, -2.79766023e-02, ...,
           1.49754947e-02,  2.13237596e-03,  3.10287724e-05],
         ...,
         [ 3.50355543e-02,  6.43208809e-03, -5.07300533e-03, ...,
           7.01502860e-02, -6.93259574e-03, -3.51536050e-02],
         [-9.08831973e-03, -5.43581089e-03,  9.66314506e-03, ...,
          -3.72872618e-03, -6.18947810e-03,  7.26096041e-04],
         [ 6.36704732e-03, -8.70099477e-03,  9.57397744e-04, ...,
          -3.46316807e-02,  1.23375235e-02, -5.22418600e-03]],

        [[ 4.32032757e-02, -7.79049844e-03,  2.06635259e-02, ...,
          -1.55284507e-02,  1.98708568e-02,  3.31063010e-02],
         [ 9.16353539e-02, -3.22837196e-02, -2.35328805e-02, ...,
           2.62936633e-02,  4.98085562e-03, -2.67370418e-02],
         [ 2.94547100e-02, -3.60530242e-02, -1.38903353e-02, ...,
           6.47906810e-02,  3.57589349e-02, -3.40145058e-03],
         ...,
         [ 1.05017036e-01,  1.15817264e-02, -1.58521179e-02, ...,
          -6.40977323e-02,  5.06011723e-03, -1.92353111e-02],
         [-1.32039329e-03, -5.74000925e-03,  8.55683628e-03, ...,
          -9.89129674e-03, -7.11910520e-03, -1.56520764e-04],
         [ 1.64099216e-01, -4.97049242e-02,  1.29001988e-02, ...,
          -4.57225777e-02, -3.16959657e-02, -2.99886279e-02]],

        [[ 1.18188541e-02, -2.07575574e-03, -2.52851727e-03, ...,
           1.89744569e-02, -1.04414765e-02,  5.99800935e-03],
         [ 9.53950584e-02,  4.26362157e-02,  1.47280544e-02, ...,
           2.95783188e-02, -2.21277680e-02,  1.06673734e-02],
         [-1.87640060e-02, -4.34605554e-02,  3.67238652e-03, ...,
           1.13410987e-02,  1.36626894e-02, -4.13691858e-03],
         ...,
         [ 2.24415995e-02,  3.81554514e-02,  3.83839011e-02, ...,
           3.50777209e-02, -5.04070930e-02,  3.30803846e-03],
         [-1.17058652e-02, -1.35703210e-03,  7.38172978e-03, ...,
          -9.14366078e-03, -1.35648041e-03,  1.94329524e-03],
         [ 1.08439095e-01, -1.30656473e-02, -9.09182727e-02, ...,
           1.07360147e-02, -3.38147655e-02,  1.29408725e-02]]],


       [[[ 8.28573480e-04, -3.81457200e-03,  9.68124531e-03, ...,
           1.11148902e-03, -8.48484877e-03,  3.33978310e-02],
         [-8.27189684e-02, -1.05137508e-02, -5.99287637e-02, ...,
          -8.36585090e-02, -8.72918069e-02, -2.77963281e-02],
         [ 1.18636759e-02, -7.80835515e-03, -2.94555482e-02, ...,
           2.38885581e-02,  2.52014548e-02, -1.82936043e-02],
         ...,
         [ 6.67291693e-03,  2.77278069e-02, -3.05162333e-02, ...,
           7.29484484e-02,  3.12360208e-02,  2.96459533e-03],
         [-7.37532321e-03, -3.03964131e-03,  5.55374520e-03, ...,
          -9.25995316e-03, -5.47530362e-03, -1.73953990e-03],
         [-2.90861409e-02, -6.19284343e-03, -6.08900841e-03, ...,
           1.88607890e-02,  3.78268491e-03, -1.89990345e-02]],

        [[ 1.68439690e-02, -2.81277974e-03, -1.05072875e-04, ...,
          -2.29372177e-02,  8.20927601e-03, -1.71656068e-02],
         [ 5.73999062e-02, -1.76494718e-02, -5.79209030e-02, ...,
          -1.46210939e-02, -3.58126611e-02, -2.06650533e-02],
         [ 2.72623841e-02, -3.56433280e-02,  6.98840525e-03, ...,
           3.72206829e-02,  3.41140181e-02,  3.51281534e-03],
         ...,
         [ 5.16063087e-02,  3.90431881e-02,  6.95565948e-03, ...,
           2.31428840e-03,  2.12624446e-02, -2.98847780e-02],
         [ 3.46223079e-03, -3.65125877e-03,  4.37034806e-03, ...,
          -5.29096276e-03, -6.66157482e-03,  3.97495599e-03],
         [ 1.39701560e-01, -3.24323736e-02, -8.52535516e-02, ...,
          -6.52388716e-03, -4.90966477e-02, -4.79628220e-02]],

        [[ 4.68268816e-04, -3.97194223e-03,  2.80804723e-03, ...,
          -1.58446040e-02, -1.21809458e-02, -3.48435668e-03],
         [-1.16957212e-03,  8.16956721e-03, -3.32386866e-02, ...,
           1.44603718e-02,  2.00679861e-02,  2.38005072e-02],
         [-1.38916448e-02, -3.66834104e-02, -3.53084208e-04, ...,
           3.53293009e-02,  8.84379353e-03, -5.28525654e-03],
         ...,
         [-2.93726083e-02,  4.15334105e-02,  7.47779384e-02, ...,
           2.10742280e-02, -4.33922037e-02, -3.49741764e-02],
         [-1.55150844e-02,  6.18717866e-04,  3.89300659e-03, ...,
          -1.10336253e-02,  1.34716067e-03, -2.18965136e-03],
         [-3.11587006e-02, -7.12930225e-03, -1.90490559e-01, ...,
           2.70442944e-02, -3.54722440e-02, -6.54634535e-02]]]],
      dtype=float32)],
 [array([-1.4635234 ,  0.9472389 ,  0.6941856 ,  0.71103793, -1.2511983 ,
        1.494645  ,  1.1984305 ,  1.6893475 ,  1.4632434 ,  1.1592315 ,
        1.6342071 , -0.02372094, -0.4761544 , -1.3381834 ,  0.9035717 ,
        1.4955683 , -0.17299828, -0.6937257 ,  0.5016198 ,  1.418118  ,
        0.65459746,  1.1536672 ,  1.3775892 , -0.06642753, -0.07694541,
        1.4921149 , -0.4820791 , -0.16298656,  1.2276459 ,  1.3435134 ,
       -1.8266294 ,  1.9288977 ,  1.229154  , -1.3813672 , -0.8831518 ,
        0.4345882 , -0.8549866 ,  1.1945151 ,  0.14062072,  0.77160233,
       -1.3838172 ,  1.4518999 ,  0.65465564,  0.86282164, -0.99211526,
        1.2945302 ,  1.0209943 ,  0.6586119 ,  0.06963609,  0.3927807 ,
       -0.7464332 , -0.11286147, -0.4244289 ,  0.36092836,  1.6049796 ,
        0.5366    , -0.6024844 , -0.3795815 , -0.00958707, -0.84107625,
       -0.7502381 ,  1.4119636 , -0.1058968 , -0.1868506 ], dtype=float32),
  array([-5.4038773e+00, -2.7432400e-03,  1.4486094e-01, -1.3108107e+00,
        1.4683163e+00, -1.6470487e+00, -5.6168014e-01, -2.6034765e+00,
       -8.7490290e-01, -9.2621160e-01,  4.3631536e-01,  3.6042633e-03,
        6.7187238e-01, -1.1712438e+00,  6.4704442e+00,  3.6889136e-01,
        3.1214161e+00, -1.4126068e+00, -2.3946693e+00,  7.2410834e-01,
       -2.7595299e-01, -8.3121139e-01, -1.0239745e+00, -1.6866609e-01,
       -2.4298601e+00,  3.8477957e-01,  1.0953647e+00, -2.2416613e-01,
       -6.9695514e-01, -1.5541281e-01,  4.8366323e-01,  4.8298535e-01,
       -1.4533708e+00, -7.3617125e-01, -1.3153954e-01, -4.0879750e+00,
       -1.2973368e+00, -9.4450462e-01, -3.6473560e+00,  7.4544495e-01,
       -5.4839972e-02, -5.8865047e-01, -1.4899741e+00, -1.3827715e+00,
       -4.7064206e-01, -1.8485118e+00, -4.7285691e-01, -1.0685059e+00,
       -8.1077015e-01, -4.0175014e+00, -2.9393187e-01,  1.9003657e+00,
       -1.2915301e+00,  2.1953444e+00, -1.9069520e-01,  1.3321431e+00,
       -4.4893202e-01,  3.1486183e-01, -4.3068521e-02, -3.0935411e+00,
       -2.7247530e-01, -1.3993739e+00, -1.0989199e-01, -9.0268779e-01],
      dtype=float32),
  array([0.42287615, 0.642036  , 1.1978852 , 1.4434454 , 0.4921499 ,
       1.1568496 , 1.3011018 , 0.8566207 , 1.7555394 , 2.1364932 ,
       1.4084951 , 1.0740051 , 0.5422856 , 0.35366535, 1.5050297 ,
       0.66258687, 0.634014  , 0.35269204, 0.81293446, 0.66010934,
       1.691951  , 0.6759621 , 0.90116173, 1.1676508 , 0.67563736,
       1.6675411 , 0.55779314, 0.60074574, 1.0818976 , 1.6899618 ,
       0.34531474, 2.0058389 , 1.0703311 , 0.21162589, 0.26544732,
       2.024834  , 0.4399327 , 0.9398927 , 0.8541581 , 1.2600571 ,
       0.26231524, 1.0786915 , 1.9492352 , 1.5685321 , 0.31954336,
       1.4428759 , 1.0396262 , 1.1614807 , 0.77705264, 0.5614018 ,
       0.3418863 , 0.5315593 , 0.42008495, 0.9226672 , 0.7415877 ,
       0.7314666 , 0.70283574, 0.5030072 , 0.9590253 , 0.49736306,
       0.6854982 , 1.1645125 , 0.60206014, 0.84810346], dtype=float32)],
 [array([[[[ 0.10379633,  0.12479768,  0.09672941, ...,  0.11175592,
          -0.05590128, -0.01045245],
         [ 0.01656313, -0.0609252 ,  0.10283173, ...,  0.00769369,
           0.08054458,  0.1355557 ],
         [-0.1419054 , -0.10672648,  0.18746991, ...,  0.0749461 ,
           0.13574256, -0.07737535],
         ...,
         [-0.02743433, -0.01400815, -0.14689025, ...,  0.02803505,
          -0.04904217, -0.3408449 ],
         [ 0.03040854,  0.03578619, -0.04107628, ...,  0.01287263,
           0.06078645,  0.28592175],
         [-0.01397817,  0.01819036,  0.06549393, ..., -0.03336016,
           0.16124186, -0.00179578]]]], dtype=float32)],
 [array([-0.17942949, -0.24626353,  1.3163302 , -0.27868167,  0.8289492 ,
       -1.3769875 ,  1.5074807 , -0.08003856, -0.5522021 ,  1.7724012 ,
       -0.64317274, -1.033937  ,  1.3993238 , -0.2696812 , -0.20976156,
       -0.2202064 ,  1.6666948 ,  0.6505189 , -0.7132945 , -0.51295805,
       -0.5546175 ,  0.14923227,  0.24131057, -0.6041349 , -1.0499482 ,
       -0.29964498,  0.67507404, -0.2513439 , -0.19013855, -0.4469637 ,
       -0.15440737,  0.16963449, -1.1258036 , -0.48964202,  1.4635146 ,
       -0.03034769,  0.00402453,  1.2414817 ,  1.3918483 , -0.1450046 ,
       -0.36952975,  1.9365413 ,  0.1349766 ,  0.04525952, -0.11216777,
        1.6105855 ,  1.6999009 , -0.7703286 ,  1.5739255 ,  0.13990693,
       -1.1377832 , -0.24457508, -0.33725592,  0.7128506 , -0.40522516,
       -0.85275674,  1.078303  ,  0.5491392 ,  0.20435804,  1.5959704 ,
        3.1053362 , -0.96856225, -0.2584334 , -0.00364605,  1.4464129 ,
        0.5016102 , -0.3680566 ,  1.7033763 ,  0.45066383, -0.31846914,
        0.31051618, -0.1878454 , -1.0244979 ,  0.58852994, -0.706514  ,
        0.93675166, -1.0943016 , -0.33072466, -0.6194309 , -0.06976431],
      dtype=float32),
  array([-3.0953255 , -1.919251  ,  2.2615678 , -0.8636289 ,  0.52888525,
        1.6399016 ,  2.6905916 ,  0.08132856, -1.4213454 ,  0.04698664,
       -1.5802066 ,  0.477687  ,  5.197835  , -1.7244257 , -2.2853208 ,
       -1.0842209 ,  0.12454034, -2.0565126 , -1.3728731 ,  0.5856068 ,
       -1.2562195 , -0.5742963 , -0.37482116, -1.908336  ,  1.1567591 ,
       -1.9110705 , -0.49025342, -1.4368793 , -2.818335  , -1.007586  ,
       -1.7500875 ,  0.28105074, -0.6154278 , -2.0693834 ,  4.99089   ,
       -2.263809  , -1.1006552 ,  0.37017792,  1.799753  , -1.7415807 ,
       -1.4126892 ,  0.14142188, -1.9704671 , -0.83634   , -0.32465506,
       -0.6437626 ,  1.7161409 , -0.72790813, -0.5118424 , -3.247972  ,
       -0.7362124 , -2.258936  , -0.3642974 , -0.05659063, -0.947567  ,
       -0.49540412,  0.01886495, -0.5051814 , -2.0972016 ,  0.1724049 ,
        0.1668934 , -0.2757077 , -1.4306457 , -1.1703349 ,  2.2247252 ,
       -1.0737948 , -1.883737  ,  1.1959443 , -0.12859035, -0.8434645 ,
        0.1582227 , -1.3740984 , -0.91271436, -3.2915065 ,  1.2424064 ,
        0.8276273 ,  1.2871394 , -1.306751  , -0.25639337, -2.61224   ],
      dtype=float32),
  array([1.1299593 , 0.4895312 , 1.2567924 , 0.655447  , 1.0675642 ,
       0.5679647 , 2.4013524 , 0.4769489 , 0.41104707, 1.5493165 ,
       0.13865152, 0.3606654 , 3.6811855 , 0.6194381 , 0.9702631 ,
       0.5420354 , 1.8196665 , 0.6693439 , 0.30682635, 0.3358473 ,
       0.36148342, 1.0791162 , 1.2784957 , 0.5771009 , 0.43558133,
       0.38594058, 1.1501882 , 0.6447061 , 0.92787325, 0.44908866,
       0.61687535, 0.651419  , 0.12535745, 0.5625547 , 4.6548605 ,
       0.74053437, 0.9604075 , 0.7162074 , 0.89791214, 0.78520614,
       0.41270232, 1.1348293 , 1.1393157 , 0.78471404, 0.74579054,
       1.143378  , 1.5281684 , 0.18316124, 1.0057886 , 1.7358956 ,
       0.12996867, 0.7293647 , 0.30433437, 1.2975595 , 0.4328982 ,
       0.23030284, 1.0284969 , 1.0139114 , 1.0340791 , 0.9808815 ,
       3.344682  , 0.225652  , 0.55463094, 0.98812187, 2.22749   ,
       1.2616653 , 0.4951237 , 1.2489482 , 1.1386192 , 0.56898504,
       0.48516783, 0.70881176, 0.10392376, 1.8164208 , 0.42483816,
       1.1370096 , 0.2182907 , 0.38215953, 0.31332394, 0.82899374],
      dtype=float32)],
 [array([[[[-4.91624651e-03, -1.67100690e-03, -1.75525062e-02, ...,
           6.14226330e-03,  2.87970295e-03,  2.99650878e-02],
         [-7.78111815e-03, -2.12187195e-04,  3.46210524e-02, ...,
           1.17826601e-02, -3.85671458e-03,  2.60700900e-02],
         [ 2.93044024e-04, -5.38338646e-02, -1.94109697e-02, ...,
          -2.76284572e-02, -1.42093329e-02,  9.73040611e-03],
         ...,
         [-3.87307815e-02,  4.81654052e-03,  1.05592562e-02, ...,
           2.79085394e-02,  4.20772145e-03,  1.08663673e-02],
         [-1.98672041e-02, -1.07031604e-02,  6.11841865e-03, ...,
          -4.54017781e-02, -4.04801546e-03,  4.24104184e-02],
         [-6.07871870e-03,  4.02175896e-02, -1.36965346e-02, ...,
          -5.26247509e-02,  3.27078020e-03, -2.57032327e-02]],

        [[-7.07782619e-03, -1.55175300e-02,  2.09313817e-02, ...,
          -2.57803127e-02, -1.67605747e-02,  4.39433716e-02],
         [ 1.78815965e-02, -2.05863430e-03,  4.38903533e-02, ...,
           8.95551126e-03, -6.14759885e-03,  2.33064722e-02],
         [-2.79216059e-02, -2.50112414e-02, -9.20589194e-02, ...,
          -4.81953397e-02, -1.62666645e-02,  6.16817316e-03],
         ...,
         [-9.56084486e-03,  6.27337315e-04, -6.71465835e-03, ...,
           1.17429683e-03, -1.22306272e-02,  1.00903120e-02],
         [ 2.16084439e-02, -2.51544658e-02, -1.65263414e-02, ...,
           1.13143502e-02, -9.99612920e-03, -3.12818959e-02],
         [-1.13546858e-02,  1.72839668e-02, -4.40960005e-03, ...,
          -8.37762898e-04,  2.51556039e-02, -2.89885178e-02]],

        [[ 1.05185332e-02, -5.30319987e-03,  1.20829511e-03, ...,
          -2.00546607e-02, -8.04450270e-03,  5.41601405e-02],
         [ 1.99206406e-04,  1.14159128e-02, -1.25251093e-03, ...,
           8.96220468e-03, -7.62202544e-05,  4.03295159e-02],
         [-4.06352151e-03,  1.35645801e-02, -8.40489119e-02, ...,
           5.34781814e-02, -1.85131393e-02, -2.20595170e-02],
         ...,
         [ 2.09340677e-02,  1.59124918e-02, -1.45566724e-02, ...,
           5.91610838e-03, -5.21394331e-03,  1.03919944e-02],
         [ 3.21037024e-02, -1.10754622e-02, -2.91238315e-02, ...,
           1.39003387e-02,  3.22385170e-02, -2.24077459e-02],
         [ 4.78763646e-03,  1.68127287e-02,  1.28079476e-02, ...,
          -1.97363570e-02,  2.04641744e-03, -2.80646998e-02]]],


       [[[-8.12799856e-03,  1.66392289e-02, -2.55037043e-02, ...,
           6.27183169e-03, -5.48580755e-03,  3.03264931e-02],
         [ 2.16504596e-02,  1.04179252e-02,  7.06122373e-04, ...,
          -4.93486936e-04, -4.92515508e-03,  1.18161393e-02],
         [-1.85524058e-02, -4.96311113e-02,  6.00209795e-02, ...,
           3.56298201e-02, -2.55139023e-02, -2.84455400e-02],
         ...,
         [-1.52158840e-02,  1.18690897e-02, -5.50577510e-03, ...,
           2.54118945e-02,  1.73004027e-02,  8.16818909e-04],
         [-3.70698865e-03, -3.24137285e-02,  8.50074459e-03, ...,
          -2.75737550e-02, -8.00129556e-07, -1.44517329e-02],
         [-1.10806925e-02, -1.23741738e-02, -1.05672674e-02, ...,
          -4.98354025e-02, -9.75730582e-05, -3.08511406e-02]],

        [[ 8.72440543e-03,  9.30933841e-03,  6.33053191e-04, ...,
          -2.64109820e-02, -2.27463851e-03,  4.28623222e-02],
         [ 1.39911920e-02, -7.44515052e-03,  3.92601416e-02, ...,
           8.60899966e-03, -8.59111641e-03,  1.19215660e-02],
         [-2.12246571e-02,  4.36809985e-03, -8.23365152e-02, ...,
          -9.49337035e-02, -4.26054858e-02, -2.72922497e-02],
         ...,
         [ 2.87205689e-02,  6.37095468e-03, -1.19276866e-02, ...,
          -5.72115881e-03,  1.52403964e-02,  6.64915098e-03],
         [ 2.59467401e-02, -4.16286997e-02, -4.62213904e-03, ...,
           4.75007808e-03,  4.22951812e-03, -4.04347666e-02],
         [ 1.65363512e-04,  4.03136155e-03,  1.25454541e-03, ...,
           4.99666389e-03,  1.40310656e-02, -5.42501956e-02]],

        [[ 2.22695060e-03,  2.11364799e-03,  2.15191934e-02, ...,
          -3.52155790e-02, -1.03290882e-02,  4.85286713e-02],
         [-1.08541530e-02,  1.12766363e-02,  3.35663855e-02, ...,
           2.19813338e-03,  8.32129363e-03,  1.31662833e-02],
         [ 2.39351410e-02, -1.09969797e-02, -7.47148991e-02, ...,
          -9.70840268e-03, -2.81419698e-02, -1.12184864e-02],
         ...,
         [ 5.66240912e-03,  1.13318963e-02, -8.23871791e-03, ...,
           1.87027617e-04,  1.64865032e-02,  1.27106532e-02],
         [ 2.86519770e-02,  8.59192386e-03, -1.04467086e-02, ...,
           6.32956484e-03,  9.35037062e-03, -1.98991075e-02],
         [-2.04704069e-02,  1.13942930e-02,  9.18913539e-03, ...,
          -4.05238708e-03, -1.83126424e-02, -3.89491469e-02]]],


       [[[ 2.07825238e-03,  1.81456264e-02, -3.46765704e-02, ...,
           1.82231572e-02, -6.94767898e-03,  3.77532877e-02],
         [ 2.14639977e-02,  1.42862331e-02, -2.56984234e-02, ...,
          -3.82458908e-03,  7.71090807e-03,  2.02982519e-02],
         [-1.90063938e-02,  4.20859940e-02,  8.62780064e-02, ...,
           2.38554627e-02, -2.76082363e-02,  6.72188355e-03],
         ...,
         [ 1.80106387e-02,  5.34729147e-03, -9.97295789e-03, ...,
           2.77978294e-02, -1.24838459e-03, -1.30059151e-03],
         [ 3.90466712e-02, -1.62909050e-02, -7.01729255e-03, ...,
          -3.18681635e-02,  1.78053919e-02, -8.82284250e-03],
         [ 7.56057538e-03,  1.80729444e-03, -1.91584416e-02, ...,
          -4.38938066e-02, -4.31679888e-04, -3.24973240e-02]],

        [[ 2.63829739e-03,  1.22066736e-02, -8.09403136e-03, ...,
          -1.41453845e-02, -9.72885918e-03,  3.76455598e-02],
         [ 1.42236357e-03, -3.93462717e-04,  7.82167818e-03, ...,
           6.60758000e-03,  6.44154754e-03,  1.04172528e-02],
         [ 3.09991874e-02, -2.46429321e-04,  1.90482493e-02, ...,
          -3.81303430e-02, -2.51764227e-02, -2.72002462e-02],
         ...,
         [-1.70942803e-03, -1.25869857e-02, -1.55673604e-02, ...,
           3.20627540e-03,  3.01852543e-03, -8.08876357e-04],
         [ 2.96031926e-02, -1.32086044e-02, -1.00539755e-02, ...,
          -2.44799480e-02, -8.08564201e-03, -3.53225283e-02],
         [ 1.90249551e-03,  1.62592158e-02, -4.30860464e-03, ...,
           1.52260589e-03,  1.15581499e-02, -3.64273675e-02]],

        [[-2.04197820e-02,  3.66428576e-04,  3.31234210e-03, ...,
          -2.51008421e-02, -1.07549494e-02,  3.83382328e-02],
         [-1.63339023e-02,  6.81738229e-03,  4.67185341e-02, ...,
           4.04346827e-03,  1.73567906e-02,  2.91651450e-02],
         [ 3.54442373e-02, -3.09778582e-02, -5.35177700e-02, ...,
          -6.44126981e-02, -2.08008699e-02, -2.37643775e-02],
         ...,
         [-2.78612338e-02,  1.45728681e-02, -1.35318208e-02, ...,
           2.69049290e-03,  5.30270720e-03,  3.92304966e-03],
         [ 4.42728885e-02, -1.04511203e-02,  6.55196654e-03, ...,
          -4.83502671e-02, -3.12257023e-03,  2.20328732e-03],
         [-9.71738249e-04,  3.17603461e-02,  1.24389678e-03, ...,
          -3.42018008e-02, -1.06884511e-02, -3.82876061e-02]]]],
      dtype=float32)],
 [array([-0.1337892 ,  1.7708993 ,  0.29692996, -1.0937923 ,  0.13717902,
       -0.81555325,  0.56689346,  0.06503127,  0.23672846, -0.5967373 ,
       -0.8112467 , -0.48264462,  0.9516908 ,  0.9218198 , -0.9923053 ,
       -0.8680375 , -1.2825692 ,  0.25122353, -1.7962713 , -0.5667532 ,
        1.0411571 , -0.7721754 ,  0.9882627 ,  1.3080715 ,  0.91317415,
        1.7262024 ,  1.2389573 , -1.077248  ,  1.1658448 , -0.48490426,
        0.09881328,  1.6004081 ,  0.60279584,  0.48855302,  0.3349027 ,
       -0.5693526 , -1.1811537 ,  0.8746405 , -1.0543956 ,  1.1623013 ,
        2.1531353 ,  0.08373742,  1.046313  , -0.15459684, -0.22615415,
        0.2720496 , -0.18254179,  0.48798746,  0.13367622,  0.0069019 ,
       -0.96261984,  0.5761824 , -0.11856619, -0.29448918, -0.81390494,
        0.30651966,  1.1928016 , -0.36929712,  0.56268257, -0.26962614,
        0.72734535,  1.5708668 ,  1.307524  , -0.070567  , -0.09215536,
        0.1853702 , -1.2399805 , -1.1662887 , -0.48839495, -0.4377728 ,
        0.68293405, -0.39328116,  0.44883478, -0.6405492 ,  0.68115467,
        0.90277475, -0.27239975, -0.20507781,  0.8931005 , -0.12791881,
        0.8884232 , -0.4050957 , -0.12191617,  0.5133905 , -1.384482  ,
        0.89406216, -0.78736824, -0.26178995, -0.153198  ,  0.8770025 ,
        1.208994  , -0.22291538, -0.6096774 , -0.11810789, -0.30411598,
       -0.96830785, -0.5677492 ,  1.5401074 ,  1.4099826 , -0.4273065 ,
       -0.4256025 ,  0.19167905,  0.59564966,  0.09789893, -1.0237598 ,
       -0.3599123 ,  0.30611518,  0.28287166, -0.07626311, -0.17005788,
        0.6363912 , -1.0973389 , -0.9877737 , -0.37114704, -0.8240188 ,
        1.3322009 , -0.4458534 , -1.0140502 ,  0.6208192 , -0.70267624,
        0.42150232, -1.3018367 , -0.27190244,  0.6721546 , -0.92101896,
        1.3542312 ,  0.34467778,  1.0859243 , -0.3625643 ,  1.3637277 ,
        0.04338942,  0.6779636 , -0.12512496, -0.4357553 , -0.9465132 ,
       -0.932859  , -0.6531328 , -0.43784124, -0.4391188 , -0.4366583 ,
       -0.88620865,  0.09245519, -0.14181192,  2.0191379 ], dtype=float32),
  array([-0.49247923, -0.8846838 ,  0.3060336 ,  0.7609281 ,  0.12733078,
       -1.3432763 , -0.9299871 , -1.0255288 , -0.243885  ,  0.3846261 ,
        0.68313897, -1.5592488 , -2.6070657 , -1.4679142 , -0.6631817 ,
        0.29063144,  0.26531786, -1.8942711 ,  1.2356328 ,  0.04386451,
        0.12017409, -0.6284994 ,  6.0737047 , -0.5130988 ,  2.2290432 ,
        1.5770341 ,  0.52466863, -2.3429158 ,  0.3618497 , -0.84882635,
       -0.22569671,  1.2184863 , -1.1326884 ,  2.47263   ,  0.20812297,
        0.52126825, -2.1846395 , -1.1236495 ,  0.07533631,  3.0919418 ,
       -0.71881276, -0.02692511, -1.1367495 , -1.6314253 , -0.36831507,
       -1.6976368 , -1.6575837 ,  0.2606219 , -1.0503477 , -0.5196741 ,
        2.1125433 , -1.5185572 , -1.6670574 ,  0.35542667,  0.37172142,
       -0.10490628,  1.3008317 , -0.11171905, -1.413656  , -1.8197545 ,
       -2.367841  ,  2.3330095 ,  1.8560131 , -0.11266377,  0.6002076 ,
       -2.3589613 , -0.35183364, -1.0044928 ,  0.1704354 , -0.46808043,
       -0.49192384, -1.6542659 , -0.37701342, -0.40353265,  1.2733027 ,
       -0.78911275,  0.11113347, -0.06904538, -1.1593447 , -0.44173145,
       -2.6815898 , -2.770236  , -2.2051027 , -0.22130178, -0.68521625,
       -0.5732071 , -0.23942682, -0.69765306, -2.4702418 , -0.20879145,
        4.222138  , -2.2288773 , -0.2902907 , -0.04567922, -2.5683794 ,
       -0.7157693 , -1.0363079 ,  3.424417  ,  1.9344007 , -1.4485157 ,
       -1.7765825 , -0.41391268, -0.42919037, -0.99091834,  0.33490303,
       -0.8489418 , -0.0393174 , -1.606694  , -0.78283817, -2.37081   ,
       -0.17201488, -1.1842378 , -0.36361834,  0.30865148, -1.9081912 ,
       -0.0118296 , -1.5020276 ,  0.18489966,  0.08679599,  1.9628603 ,
       -1.3808699 , -0.3156706 ,  0.10306711,  0.27287942, -0.92842627,
        5.656038  , -0.67450964, -0.10810971,  2.3794873 ,  3.103379  ,
       -1.4787962 , -1.445185  ,  0.61280257, -2.9620485 ,  2.967852  ,
        0.08528631, -1.7253804 , -0.77176046,  0.13118134, -2.0451334 ,
        2.8580108 , -0.31509194, -0.818053  , -0.63943285], dtype=float32),
  array([0.85136515, 1.6118073 , 1.6603345 , 0.72854066, 1.3056943 ,
       1.4868085 , 2.4054465 , 1.3824978 , 1.354794  , 0.9253338 ,
       0.6046845 , 1.3664191 , 1.6461053 , 1.4167348 , 0.7940421 ,
       0.6868726 , 1.7489346 , 1.4310195 , 1.1907253 , 2.2542696 ,
       1.0008062 , 0.7190484 , 3.9798374 , 1.7093661 , 1.911188  ,
       3.9938414 , 3.0869308 , 0.9789558 , 5.0962644 , 1.1850897 ,
       1.135444  , 4.3787603 , 1.1664197 , 2.1411748 , 1.2794783 ,
       1.0807134 , 0.94454926, 1.6257894 , 0.8500307 , 3.5216668 ,
       3.108489  , 1.4131815 , 2.8637621 , 1.6791239 , 1.3336083 ,
       1.4208875 , 1.6927329 , 3.0017483 , 1.2926364 , 1.4075242 ,
       0.7875031 , 2.7324107 , 2.1416502 , 1.1331403 , 0.90290844,
       1.856954  , 3.3339024 , 0.8808685 , 1.5986032 , 1.3744587 ,
       1.5741193 , 3.6443396 , 2.9482198 , 1.5469698 , 1.3611476 ,
       2.3720562 , 0.25662714, 1.9210898 , 0.8548155 , 0.91614026,
       2.2528205 , 1.314862  , 2.3310745 , 1.1089329 , 1.458151  ,
       1.0161011 , 0.958802  , 0.85110754, 1.345015  , 0.9339829 ,
       3.098692  , 0.7433036 , 1.2090309 , 0.9814527 , 0.34777457,
       2.723119  , 1.0211875 , 1.6004033 , 1.8739015 , 1.4581448 ,
       6.990556  , 1.5799747 , 0.9415212 , 0.9320303 , 1.2111497 ,
       0.60146755, 1.2951438 , 7.2804832 , 4.7706084 , 1.0692476 ,
       1.1790129 , 1.0400727 , 2.7866147 , 1.3843365 , 0.6304254 ,
       0.86746675, 1.2679592 , 1.6946003 , 1.3168923 , 1.3363537 ,
       2.021446  , 0.6203561 , 0.3010685 , 1.0521729 , 0.8999861 ,
       3.7124903 , 1.6029409 , 1.1901574 , 1.4301903 , 0.97062325,
       1.1346369 , 0.19816065, 1.1786401 , 2.2116086 , 0.9350393 ,
       8.286327  , 1.5718541 , 1.7087672 , 1.5041441 , 2.926699  ,
       1.1230859 , 1.2500052 , 0.9163866 , 1.1711013 , 1.0518852 ,
       0.87820375, 0.51518345, 1.2604003 , 1.2299657 , 1.455759  ,
       1.0406638 , 1.477343  , 2.075326  , 5.02819   ], dtype=float32)],
 [array([[[[ 0.08749723, -0.02254265, -0.00985824, ...,  0.03779047,
           0.06790224, -0.07450427],
         [ 0.07164725, -0.00669527, -0.03684587, ...,  0.11416745,
           0.04210464,  0.07062379],
         [-0.07053386, -0.03743624,  0.01517354, ..., -0.01368616,
          -0.02838726,  0.04108475],
         ...,
         [ 0.07021549,  0.0027302 ,  0.03262468, ...,  0.0816322 ,
          -0.0811092 , -0.03383747],
         [-0.11558309, -0.01869308,  0.02778189, ..., -0.06698047,
          -0.04646757, -0.02252676],
         [-0.0127441 ,  0.01518862, -0.04595599, ...,  0.05693361,
          -0.00017252,  0.0420898 ]]]], dtype=float32)],
 [array([ 1.3520517 , -0.33983025,  0.3134141 ,  1.4501117 ,  0.03980212,
        0.7399732 ,  0.21224092,  0.1732292 ,  1.764933  ,  0.19427064,
       -0.4277196 ,  0.11142802,  0.13379781,  0.9362632 ,  0.2524035 ,
        0.66653806,  0.17116104,  0.05469325,  0.04367089,  1.5602642 ,
        0.48658422,  0.5114525 ,  0.9165639 , -0.21840465, -0.03586642,
        0.37140024,  0.533306  ,  0.24452363,  1.1862295 , -0.15641476,
       -0.31200704,  0.84653485,  0.35909334, -0.5385691 ,  0.22982779,
        1.2139442 ,  1.3659557 , -0.8746733 ,  0.1309797 ,  0.34175876,
        0.82620674, -0.6532056 , -0.5291616 ,  0.873964  ,  1.099063  ,
        1.0155048 , -0.06949459,  0.18992317, -0.14777674,  0.43087083,
        1.1556711 , -0.37371626,  1.2231553 ,  0.11431262,  1.1587406 ,
        0.44213688,  0.6738448 ,  0.43684   ,  0.62311184,  0.1266458 ,
        1.3861325 ,  1.032264  ,  1.6328144 ,  1.3053045 ], dtype=float32),
  array([-0.08360785, -0.80098176,  0.30881652, -0.18079318,  0.32655317,
       -1.8395181 ,  1.5358425 , -1.2903097 ,  3.8436444 , -0.4538784 ,
        0.58818316, -0.89796907, -1.9111459 ,  1.8158971 , -0.91224426,
        0.87396497, -1.4949381 , -2.215056  , -0.8906087 ,  1.3627377 ,
       -0.24223948, -1.2590113 , -0.9696939 , -1.5139234 ,  2.3556604 ,
       -2.2613583 ,  3.3390055 , -1.8940227 ,  1.2296265 ,  0.6536156 ,
       -2.321243  , -1.3131875 , -2.368521  , -0.19918567, -2.0353749 ,
       -1.0566931 ,  0.3810874 ,  2.212945  , -1.642987  ,  0.06358261,
        0.21524687,  0.9259564 , -0.04592865, -2.3290474 ,  1.9066039 ,
       -0.43248776, -1.4823226 , -1.9926842 , -1.1275684 , -2.2524695 ,
        0.40440953,  2.1710677 ,  0.07600451,  1.4600717 ,  1.246012  ,
       -1.5631502 , -1.4427983 , -0.7587001 , -0.8264972 , -2.4306378 ,
       -0.28742355,  0.32390127,  2.1943023 ,  0.8731342 ], dtype=float32),
  array([0.7609669 , 0.35015577, 0.6624701 , 1.4980521 , 2.3016903 ,
       1.1817852 , 1.4487956 , 0.769638  , 2.294407  , 0.6019727 ,
       0.6252122 , 0.8883225 , 0.8675837 , 1.1858487 , 0.49158868,
       1.1593404 , 0.77066666, 0.87219507, 1.2301903 , 1.3201505 ,
       0.8460451 , 0.77696323, 1.2077262 , 0.88412124, 1.011781  ,
       1.1312078 , 1.2493286 , 1.3233577 , 1.606716  , 1.1505905 ,
       0.52574706, 1.1950693 , 1.9798554 , 0.31732523, 0.61062485,
       1.8117491 , 1.6260357 , 0.8587276 , 0.77467483, 0.6614948 ,
       1.1065912 , 0.38660687, 0.37923193, 0.74128705, 0.9433886 ,
       1.2963446 , 0.4595442 , 1.1157417 , 0.46372116, 1.734491  ,
       1.2530195 , 0.5746464 , 1.0009688 , 0.925277  , 1.4955475 ,
       1.295648  , 1.2983414 , 1.0491755 , 1.2774904 , 1.0530394 ,
       2.05892   , 1.8505249 , 2.3214998 , 0.910556  ], dtype=float32)],
 [array([[[[-0.01633804,  0.02231536, -0.01070784, ..., -0.03132887,
          -0.00588526, -0.03253724],
         [-0.01633187, -0.03340332, -0.0105854 , ..., -0.05359134,
          -0.00407204,  0.05849046],
         [-0.02729022,  0.00391601, -0.08505965, ..., -0.015425  ,
           0.0595299 ,  0.11681718],
         ...,
         [-0.01535426, -0.00327705,  0.06598005, ..., -0.05105934,
          -0.02765507,  0.01934072],
         [ 0.06977446, -0.11075575,  0.04371167, ..., -0.00244878,
           0.03500706,  0.06636258],
         [-0.07812005,  0.03210403, -0.06406829, ..., -0.03416502,
           0.05126082, -0.16111997]]]], dtype=float32)],
 [array([-0.66063285, -0.0886248 , -0.33853546, -0.2540547 , -0.6341272 ,
       -0.37784666, -0.03340142, -0.20077072, -0.1598511 , -0.19759136,
       -0.27371138, -0.58117884, -1.0598112 , -0.46734098,  0.1465228 ,
       -0.5705579 , -0.5907458 ,  0.16170749,  0.35780352, -0.7311983 ,
       -0.8742259 ,  0.34535608, -0.9225564 , -0.5343417 , -0.7020577 ,
       -0.2857561 , -0.70394254, -0.11622215, -0.06856278, -0.99984115,
       -0.5600481 ,  0.6724226 ,  0.80033916,  0.6336172 , -0.25210595,
       -0.34781784,  0.45330474,  0.9001073 ,  0.49216563, -0.6495997 ,
       -0.2508102 ,  1.3639929 ,  0.8981296 , -0.52541816, -0.4207731 ,
       -0.9223192 , -0.00353572,  1.2587286 ], dtype=float32),
  array([ 0.42326805, -1.0927044 ,  0.20137838, -0.6888204 ,  0.12620807,
       -1.5205256 , -0.3820268 , -0.37200674, -0.40290287,  0.615671  ,
        1.3782663 , -0.26021668,  2.4821246 ,  0.22362834,  0.6564031 ,
        0.30249912,  0.6993228 , -0.8094513 ,  0.23388505,  0.7878627 ,
        0.794623  , -0.669153  ,  1.5791947 ,  0.40646705, -0.22851102,
       -0.04950975,  0.15058874,  0.7330958 ,  0.23860379,  0.33626324,
        1.0980926 , -0.24251725, -0.4253529 , -1.2576553 ,  0.27640972,
        0.33463588, -0.42894408,  0.63511217,  0.23899266, -0.58162266,
       -0.8915832 ,  0.5553639 , -0.39418188, -0.2029619 ,  0.18687676,
       -0.27834186,  0.21816   ,  0.20775181], dtype=float32),
  array([0.5302355 , 0.44686458, 0.6311835 , 0.34077904, 0.21057384,
       0.39493155, 0.5291307 , 0.45257947, 0.43548107, 0.4696661 ,
       0.37547556, 0.26175708, 0.22811678, 0.42362356, 0.7691742 ,
       0.24610548, 0.14362822, 0.3842633 , 0.76662856, 0.42019925,
       0.4936333 , 0.6947971 , 0.16548294, 0.18045633, 0.27284187,
       0.30609003, 0.16780315, 0.24457818, 0.55450624, 0.08627442,
       0.28911582, 0.7511496 , 1.2312297 , 1.2820714 , 0.2443049 ,
       0.16612299, 0.7419327 , 0.886048  , 0.5687508 , 0.19581182,
       0.5106133 , 2.5758169 , 0.7020267 , 0.26777065, 0.34715948,
       0.25859296, 0.2729093 , 1.7627892 ], dtype=float32)],
 [array([[[[-1.49513017e-02, -1.30906922e-03, -5.97903156e-04, ...,
          -3.17009632e-03,  2.45523471e-02, -2.11359281e-02],
         [ 4.52610552e-02,  3.85324284e-02,  1.19646154e-02, ...,
           1.91663839e-02, -4.18427167e-03,  4.62461775e-03],
         [-3.44436392e-02, -1.52640883e-02,  4.34365543e-03, ...,
          -7.43051851e-03,  5.50014600e-02, -1.64698940e-02],
         ...,
         [ 7.50489300e-03,  1.81218795e-02,  3.73306056e-03, ...,
           4.64851828e-03,  1.28053995e-02, -1.19753517e-02],
         [ 2.26737205e-02, -2.45622429e-03,  8.03841837e-03, ...,
          -3.16839479e-03,  1.58228707e-02, -1.24840196e-02],
         [-4.07713046e-03, -3.22832540e-02,  2.52967142e-02, ...,
           1.98497903e-02,  1.07528284e-01, -4.78736609e-02]],

        [[-1.87182694e-03,  7.78193539e-03, -1.66036747e-03, ...,
          -4.14313562e-03,  1.83787029e-02, -4.18921700e-03],
         [ 3.68485563e-02,  1.90600567e-02,  1.62837822e-02, ...,
           2.22047195e-02, -1.70883350e-02,  3.00831790e-03],
         [-1.84171386e-02, -9.22445673e-03,  7.51451415e-04, ...,
           1.11802425e-02,  4.39905375e-02, -8.01919494e-03],
         ...,
         [ 4.90852166e-03,  1.59732811e-02, -2.09025946e-03, ...,
          -9.25958343e-03, -6.22078544e-03,  2.45836534e-04],
         [ 7.50400266e-03, -8.57668812e-04,  5.89901535e-03, ...,
          -2.81785727e-02,  1.05141932e-02, -1.83549952e-02],
         [-1.56255048e-02,  3.89996712e-04,  4.59603444e-02, ...,
           2.40110084e-02,  1.24742426e-01, -4.17168103e-02]],

        [[ 1.01266503e-02,  3.37729626e-03, -7.76524981e-03, ...,
          -1.22094471e-02,  1.14754392e-02,  2.42908066e-03],
         [ 2.39118021e-02,  1.15764253e-02,  9.15725064e-03, ...,
           2.33180057e-02, -1.63807068e-02,  1.92606263e-02],
         [-1.11618219e-02, -1.18877236e-02,  7.55912298e-03, ...,
           1.54489954e-03,  2.66681127e-02, -2.79313885e-03],
         ...,
         [-1.74294598e-02,  1.74872018e-02, -8.78110714e-03, ...,
          -2.09546480e-02, -1.22181382e-02, -8.60907231e-03],
         [ 3.24936863e-03,  2.21164078e-02, -7.45867332e-03, ...,
          -2.47200858e-02,  2.20948104e-02, -1.87376719e-02],
         [-2.25705542e-02,  6.37961784e-03,  3.39354277e-02, ...,
          -1.08990294e-03,  1.57691181e-01, -2.53100768e-02]],

        [[-1.26459589e-02, -9.47858300e-03,  1.87736819e-03, ...,
          -2.10258085e-02,  1.52454991e-02,  8.47490691e-03],
         [ 8.01766384e-03,  4.06973716e-03,  5.66012040e-03, ...,
           8.79526138e-03, -3.88988387e-03,  1.24280471e-02],
         [-6.08376274e-03, -2.34016497e-02,  3.46427076e-02, ...,
          -2.65172636e-03,  1.67217595e-03, -7.73314573e-03],
         ...,
         [-1.69806443e-02,  1.24542350e-02, -1.77328847e-02, ...,
          -2.04227492e-02,  1.88112147e-02,  3.72287759e-04],
         [-1.41400723e-02,  2.44842414e-02,  5.34299156e-03, ...,
          -1.21117877e-02,  9.45638213e-03, -2.01056828e-03],
         [-2.14514211e-02,  1.25628309e-02,  3.87897678e-02, ...,
          -1.05789506e-04,  1.32720754e-01,  1.56046310e-02]],

        [[-2.23677345e-02,  9.94504779e-04,  5.71490033e-04, ...,
          -1.48306992e-02,  1.22787300e-02,  3.36531759e-03],
         [ 6.02830993e-03, -4.48988238e-03, -2.33697076e-03, ...,
           5.36389183e-03,  1.82373356e-02,  5.83540350e-05],
         [-4.57519526e-03, -1.83761455e-02,  4.21802774e-02, ...,
          -1.65908714e-04, -1.13548534e-02, -1.10582272e-02],
         ...,
         [-1.87653005e-02,  1.06009012e-02, -2.60583386e-02, ...,
          -1.02658728e-02,  2.98507046e-02, -8.49291589e-03],
         [-9.44323023e-04,  2.20124982e-02, -1.10718068e-02, ...,
          -1.77579578e-02,  9.18486528e-03, -1.02158831e-02],
         [-4.98206867e-03,  4.04173369e-03,  5.95439859e-02, ...,
          -2.32839528e-02,  7.93385580e-02, -6.03464991e-03]]],


       [[[-1.28303040e-02, -5.63973794e-03,  2.06590816e-03, ...,
           1.13117080e-02,  1.71582922e-02, -1.50435995e-02],
         [ 4.14623171e-02,  3.02314218e-02,  1.67052802e-02, ...,
           1.08083421e-02, -1.17553296e-02, -1.46934472e-04],
         [-2.81373225e-02, -1.20592508e-02, -3.44733591e-03, ...,
           9.33219027e-03,  4.22774814e-02, -6.37406763e-03],
         ...,
         [ 2.47780737e-02,  1.81955006e-02,  4.50277980e-03, ...,
           2.91849859e-03,  7.50094827e-04,  1.35153793e-02],
         [ 1.20483255e-02, -3.15613812e-03,  7.43564824e-03, ...,
          -2.24417937e-03,  1.42624751e-02, -4.75374749e-03],
         [ 5.34605002e-03, -1.75854713e-02, -1.06989332e-02, ...,
           2.26581004e-02,  5.60417958e-02, -2.32872665e-02]],

        [[ 3.53743642e-04,  5.86954819e-04,  6.96503650e-03, ...,
           4.10432229e-03,  1.28457947e-02, -3.56085319e-03],
         [ 2.35740095e-02,  1.07800541e-02,  1.41448453e-02, ...,
           2.19659656e-02, -1.08744195e-02,  5.95284440e-03],
         [-1.65106803e-02,  7.62360683e-03, -2.29914524e-02, ...,
           1.20689385e-02,  2.41315477e-02, -6.59865187e-03],
         ...,
         [ 1.93495769e-02, -4.74943453e-03,  3.86920292e-03, ...,
          -2.40179594e-03,  7.65593583e-03,  2.26731934e-02],
         [-8.11546855e-03, -2.13877391e-03, -1.77482460e-02, ...,
          -2.06009988e-02,  3.39606106e-02, -1.60181616e-02],
         [ 1.79000106e-03,  2.14439034e-02,  4.80359048e-02, ...,
           9.84406844e-03,  1.58173274e-02, -1.73934661e-02]],

        [[ 1.75698958e-02, -7.04334525e-05,  8.90050724e-04, ...,
          -6.71952590e-03, -9.77594033e-03, -4.66148462e-03],
         [ 7.81450048e-03,  6.35398086e-03,  1.02169090e-03, ...,
           2.71349102e-02, -1.92824577e-03,  2.85599101e-02],
         [-8.52350052e-03, -4.21312358e-03, -2.91233510e-02, ...,
          -3.73930042e-03, -4.12832992e-03,  5.62217319e-03],
         ...,
         [ 1.07393432e-02, -5.08826785e-03,  2.53455006e-02, ...,
          -1.06942458e-02, -8.97642039e-03,  8.39254074e-03],
         [ 9.50773770e-04,  3.86161054e-03, -1.65631045e-02, ...,
          -2.64337249e-02, -6.74257288e-03, -1.73455756e-02],
         [ 4.33955435e-03,  3.51398028e-02,  4.29345714e-03, ...,
          -9.49659012e-03,  3.98286171e-02, -2.23674271e-02]],

        [[-1.08148884e-02,  4.21563862e-03,  2.02520867e-03, ...,
          -1.78210177e-02, -1.52281029e-02,  3.15394485e-03],
         [ 1.66919269e-03, -3.56403599e-03,  2.99886614e-03, ...,
           7.94174615e-03, -4.42007184e-03,  2.24266239e-02],
         [-1.72483455e-02, -2.04636920e-02,  2.20553279e-02, ...,
           1.22762052e-02, -1.42703811e-02,  3.28293507e-04],
         ...,
         [ 1.80740957e-04,  2.40620319e-02, -1.59515012e-02, ...,
          -1.88275818e-02, -7.34467176e-04, -4.27371450e-03],
         [-1.56624876e-02,  2.55232323e-02,  2.95999553e-03, ...,
          -2.08871197e-02, -3.13372612e-02,  1.73400007e-02],
         [-2.89364327e-02,  1.48626696e-02, -3.53124477e-02, ...,
          -1.72643200e-03,  5.46700880e-02,  1.13011291e-02]],

        [[-2.00616736e-02,  7.14192679e-03,  2.81603565e-03, ...,
          -1.56020559e-02, -8.44584964e-03,  5.81094623e-03],
         [-5.59128541e-03, -1.10630633e-03,  1.33153051e-03, ...,
          -3.01450724e-03,  6.40491536e-03,  6.19050395e-03],
         [-1.57841295e-02, -1.92605630e-02,  3.50514092e-02, ...,
           1.26106944e-02, -1.65102817e-02, -1.05701480e-02],
         ...,
         [-8.42922740e-03,  7.24269310e-03, -2.88695879e-02, ...,
          -2.53322814e-02,  8.31993355e-04, -1.03675649e-02],
         [ 2.92506628e-03,  2.84529049e-02, -1.39024807e-02, ...,
          -2.36126352e-02, -7.50269741e-03, -4.17703670e-03],
         [-2.93225590e-02,  1.04027232e-02,  2.80431146e-03, ...,
          -2.24442501e-02,  1.49198351e-02, -1.92332678e-02]]],


       [[[ 1.02359173e-03, -1.85847394e-02, -7.32327113e-04, ...,
           3.29970717e-02,  7.86044635e-03, -1.24494275e-02],
         [ 2.55542118e-02,  4.78646485e-03,  1.44825447e-02, ...,
           4.43327427e-03, -1.84768997e-02,  9.64251254e-03],
         [-2.18245834e-02, -5.46649471e-03, -5.29221306e-03, ...,
           1.70970168e-02,  1.62608661e-02, -9.24138073e-03],
         ...,
         [ 2.16992851e-02,  2.66465861e-02, -8.88416450e-03, ...,
           9.50626936e-03, -5.68002509e-03,  5.68204978e-03],
         [ 5.87519910e-03, -3.33207124e-03, -8.93403031e-03, ...,
           5.54264244e-03,  1.48355868e-02, -7.97840394e-03],
         [-6.27325615e-04, -2.19970057e-03, -2.50648465e-02, ...,
           9.46758874e-03,  4.67753009e-04,  2.63512088e-03]],

        [[ 1.25258425e-02, -7.84133002e-03,  7.87492562e-03, ...,
           1.38069429e-02,  4.79538599e-03,  7.01551279e-03],
         [ 9.37692169e-03, -1.10929804e-02,  1.34310769e-02, ...,
           1.54050225e-02, -1.19278701e-02,  1.40071316e-02],
         [-1.14174299e-02,  5.96565753e-03, -2.62004361e-02, ...,
           1.26022184e-02, -7.23429304e-03, -2.77515072e-02],
         ...,
         [ 7.15456321e-04, -1.17646507e-03,  8.75384081e-03, ...,
          -1.42249353e-02, -1.19209932e-02,  5.06603043e-04],
         [-1.09998798e-02, -7.95322005e-03, -2.93213688e-02, ...,
           6.72170194e-03,  4.32180054e-02, -1.78829990e-02],
         [ 7.30770081e-03,  6.69647148e-03,  7.94075131e-02, ...,
          -4.00499478e-02, -7.74284080e-02,  1.15888324e-02]],

        [[ 6.22564331e-02,  1.19004529e-02,  8.22752342e-03, ...,
           4.76683676e-03, -1.95041336e-02,  3.69633287e-02],
         [-2.36397982e-02, -2.23605614e-02, -5.36232674e-03, ...,
           7.56960735e-03, -5.52713079e-03, -2.00886074e-02],
         [ 2.00928021e-02, -1.25520909e-02, -2.81820074e-02, ...,
          -6.24727644e-03, -2.92111561e-02,  1.64229069e-02],
         ...,
         [ 2.77827494e-02,  1.13170827e-02,  8.72976407e-02, ...,
          -1.98920984e-02, -5.99130206e-02, -8.18195567e-03],
         [ 2.63752919e-02, -3.21736629e-03, -8.82282574e-03, ...,
          -1.37715079e-02, -6.92558512e-02,  2.87664924e-02],
         [ 7.18836933e-02,  2.47303285e-02,  5.42358533e-02, ...,
          -4.08230498e-02, -7.04974011e-02,  4.45802175e-02]],

        [[ 9.66423843e-03,  7.81212235e-03,  7.90596474e-03, ...,
          -8.32283683e-03, -2.71148011e-02,  7.95247592e-03],
         [-2.58240681e-02, -1.14365369e-02, -6.42737094e-03, ...,
          -2.83666630e-03, -9.38303582e-03,  5.80850465e-04],
         [-7.13637704e-03, -2.34679040e-02,  1.08050359e-02, ...,
           1.93399508e-02, -1.96175985e-02, -5.75331040e-03],
         ...,
         [ 9.07830615e-03,  6.83386950e-03,  9.75577161e-03, ...,
          -1.86832007e-02, -2.32344791e-02, -1.54787593e-03],
         [-1.50066409e-02,  2.82444507e-02,  8.80689081e-03, ...,
          -2.71883607e-02, -5.68249151e-02,  2.88713519e-02],
         [-2.98025869e-02, -1.48930281e-04, -3.79095636e-02, ...,
          -2.52927840e-03,  1.57451928e-02,  8.95327888e-03]],

        [[-1.46668190e-02,  4.79540043e-03, -1.86109717e-03, ...,
          -1.15155755e-02, -2.47224402e-02,  3.36687849e-03],
         [-2.79598478e-02,  8.34012404e-03, -3.22808395e-03, ...,
          -6.76353415e-03,  9.62463021e-03,  1.26262624e-02],
         [-8.78500659e-03, -2.62475219e-02,  2.23341081e-02, ...,
           9.28272866e-03, -3.16244699e-02, -1.38179660e-02],
         ...,
         [-7.11657281e-04, -4.99946531e-03, -1.23612834e-02, ...,
          -2.55273078e-02, -1.05094090e-02, -8.98544863e-03],
         [ 1.59475375e-02,  1.55972484e-02, -2.85944138e-02, ...,
          -3.07889562e-02,  7.80616095e-03, -8.92510917e-03],
         [-4.44306582e-02, -2.30688928e-03, -1.68356150e-02, ...,
          -9.70283989e-03, -5.86660653e-02, -3.29504572e-02]]],


       [[[-9.23112594e-03, -1.72188841e-02,  2.52708909e-03, ...,
           2.34974828e-02,  4.98159928e-03, -7.21991761e-03],
         [ 8.75431020e-03, -7.17898225e-03,  6.74983719e-03, ...,
          -6.27777260e-03, -2.89017484e-02,  5.35773905e-03],
         [-2.25812662e-02, -8.09245277e-03,  6.16381923e-03, ...,
           1.12100644e-02, -1.50270630e-02,  2.35741609e-03],
         ...,
         [ 1.71979629e-02,  5.09052388e-02, -4.21919394e-04, ...,
           1.06952209e-02, -1.05242594e-03, -9.78760328e-03],
         [ 5.58731891e-03,  2.58867838e-03, -2.07733666e-03, ...,
           8.08408111e-03,  1.72561128e-02, -2.00208165e-02],
         [-2.59266365e-02,  9.74591880e-04, -5.01444004e-03, ...,
           1.28716771e-02, -3.07907281e-03,  1.17768180e-02]],

        [[ 1.27171353e-03, -4.18306794e-04,  2.54601520e-03, ...,
           1.89009048e-02,  3.57493293e-03,  1.08469073e-02],
         [-7.15485215e-03, -1.67583991e-02,  1.79908797e-03, ...,
          -2.54792860e-03, -2.42819544e-02,  1.55918291e-02],
         [-2.24096943e-02, -2.64491048e-02,  1.19681156e-03, ...,
           3.09631210e-02, -1.94728412e-02, -1.68778691e-02],
         ...,
         [ 1.19900340e-02,  3.50639150e-02,  7.45967682e-03, ...,
          -1.59949772e-02,  1.90039584e-03,  7.29652261e-03],
         [-1.46246585e-03,  1.21462084e-02, -1.19023779e-02, ...,
          -1.49235521e-02,  6.38682628e-03, -1.16276564e-02],
         [-4.97686304e-02,  7.56493071e-03,  2.10517924e-02, ...,
          -2.31195148e-02, -2.62983236e-02,  2.45776726e-03]],

        [[ 2.35225987e-02,  1.34286629e-02, -1.61270145e-03, ...,
           1.28766643e-02, -1.22907711e-02,  1.54329566e-02],
         [-3.33259143e-02, -1.23389876e-02, -3.59122921e-03, ...,
          -3.34697738e-02, -2.48258170e-02, -1.77644435e-02],
         [-2.03009136e-03, -3.19786333e-02, -4.30495804e-03, ...,
           2.28193104e-02, -1.87984053e-02, -1.06412433e-02],
         ...,
         [ 2.32798760e-04,  2.80657653e-02,  1.33685498e-02, ...,
          -2.80987211e-02, -2.06022859e-02,  1.34039001e-04],
         [-2.68667005e-03,  4.41241860e-02, -4.81631933e-03, ...,
          -2.12922897e-02, -3.95330973e-02,  3.77071463e-02],
         [ 3.82417180e-02, -1.05594099e-02,  2.94085257e-02, ...,
          -4.30488326e-02, -6.01521432e-02,  1.61731010e-03]],

        [[ 1.63487653e-04,  3.84940417e-04,  4.74622892e-03, ...,
          -7.65639916e-03, -1.93451811e-02,  1.43225435e-02],
         [-3.04574687e-02,  1.07643818e-02, -8.55232868e-03, ...,
          -2.85226516e-02, -1.61940772e-02,  1.00216242e-02],
         [-9.67894401e-03, -8.76990240e-03,  1.11297695e-02, ...,
           2.19066385e-02, -1.20658688e-02, -6.11545891e-03],
         ...,
         [ 8.47862847e-03, -9.95997991e-03, -7.91949779e-03, ...,
          -1.44947087e-02, -1.79082286e-02,  5.07189427e-03],
         [-2.42980495e-02,  3.33079956e-02, -8.04303214e-03, ...,
          -2.28322372e-02, -5.71010867e-03,  1.74244046e-02],
         [-5.36658615e-03, -2.63761431e-02,  1.14576407e-02, ...,
          -7.16722338e-03, -7.08792266e-03,  7.22549297e-03]],

        [[-1.49088465e-02, -1.49276352e-03,  2.42041284e-03, ...,
          -1.35805057e-02, -2.62709595e-02,  3.60298296e-03],
         [-3.12886573e-02,  2.18897387e-02, -1.00053549e-02, ...,
          -1.66406017e-02,  5.99484937e-03,  1.94918718e-02],
         [-1.04860393e-02, -8.70096125e-03,  1.72799844e-02, ...,
           3.60003952e-03, -3.07540670e-02, -5.87231899e-03],
         ...,
         [ 2.83589051e-03,  1.11178616e-02, -2.22467072e-03, ...,
          -6.91539096e-03,  3.19984253e-03, -6.45173807e-03],
         [ 1.45012243e-02, -3.07827201e-02, -2.35694926e-02, ...,
          -2.85310578e-02,  3.50275114e-02, -1.39815286e-02],
         [-2.03081015e-02, -1.92045197e-02,  2.67370045e-03, ...,
          -1.58621464e-03, -6.86457828e-02, -1.92523450e-02]]],


       [[[-1.62253901e-02, -1.34555651e-02, -2.88040028e-03, ...,
           1.46915121e-02, -1.20930588e-02, -1.13984654e-02],
         [-1.18372636e-02,  7.43392482e-03,  3.32631380e-03, ...,
          -1.90335454e-03, -2.35309415e-02,  1.77998152e-02],
         [-1.96331535e-02, -1.80675518e-02,  4.45430772e-03, ...,
           1.78202300e-03, -3.23613510e-02, -1.22453412e-02],
         ...,
         [ 2.31758429e-04,  2.60785017e-02, -2.58884206e-03, ...,
           1.73925199e-02,  8.61953106e-03, -2.67304406e-02],
         [ 1.34686539e-02,  1.68633293e-02, -3.19230277e-03, ...,
           1.09090144e-03,  1.22100906e-02, -5.76621946e-03],
         [ 4.69898153e-03, -2.74330433e-02, -6.55289274e-03, ...,
           7.14153238e-03, -7.78727280e-03, -1.24388319e-02]],

        [[-1.82270585e-03,  2.90318369e-03, -2.58250837e-03, ...,
           1.88030843e-02, -1.33398678e-02, -6.75590301e-04],
         [-3.08422744e-02,  6.58766087e-03,  1.73734489e-03, ...,
          -5.18096564e-03, -1.92459766e-02,  2.62746029e-02],
         [-1.46612655e-02, -2.59916913e-02,  3.75120761e-03, ...,
           2.18595471e-02, -2.84217354e-02, -2.83445437e-02],
         ...,
         [-3.43064428e-03,  2.32787430e-02, -1.80975680e-04, ...,
           2.79799150e-03,  1.94166205e-03, -1.95463374e-02],
         [ 1.18629877e-02,  3.01508885e-02, -4.54769190e-03, ...,
          -2.22082436e-02, -7.87849631e-03,  6.52264664e-03],
         [-2.26184744e-02, -1.09308008e-02, -4.89328057e-04, ...,
          -2.41723959e-03,  7.47438986e-04, -5.98343927e-03]],

        [[ 5.81501098e-03,  1.16437662e-03, -1.20443162e-02, ...,
           1.31366476e-02, -2.99543347e-02, -1.44927634e-03],
         [-5.80973811e-02,  1.14114974e-02, -4.58857650e-03, ...,
          -2.87205856e-02, -3.48930690e-03,  1.78374629e-02],
         [ 1.17072042e-04, -1.17121004e-02, -4.61413944e-03, ...,
           2.54692342e-02, -4.32845429e-02, -3.60904895e-02],
         ...,
         [-5.30215492e-03,  5.14043821e-03, -1.05685648e-02, ...,
          -2.18336396e-02, -1.36859650e-02, -9.60457139e-03],
         [ 9.78562422e-03,  4.97768708e-02, -1.70110399e-03, ...,
          -2.26745605e-02, -9.63586941e-03,  1.94478575e-02],
         [ 1.04487287e-02, -2.98494920e-02, -2.65458375e-02, ...,
          -1.89028401e-02, -3.88783216e-02, -1.34374155e-02]],

        [[-1.03769647e-02, -7.03074178e-03, -1.41774938e-02, ...,
          -6.57504192e-03, -3.18288282e-02,  8.58749915e-03],
         [-4.79171686e-02,  1.84020288e-02, -8.73866305e-03, ...,
          -2.16071159e-02, -1.92956941e-03,  2.06240397e-02],
         [-9.89065957e-05,  1.46267354e-03,  8.46539252e-03, ...,
           1.02866450e-02, -4.48956788e-02, -1.87017284e-02],
         ...,
         [ 6.34947093e-04, -3.33387405e-03, -1.78408399e-02, ...,
          -1.57473274e-02, -6.61173696e-03, -4.75964090e-03],
         [ 1.81022348e-04, -1.30595523e-04, -5.85628813e-03, ...,
          -2.13631988e-02,  1.66826881e-02,  1.64767709e-02],
         [-4.14139172e-03, -2.83335093e-02,  1.64675526e-04, ...,
          -1.89254561e-03, -2.65889373e-02, -5.16455015e-03]],

        [[-1.66010428e-02, -1.24043347e-02, -1.20774200e-02, ...,
          -1.26790255e-02, -4.14233431e-02, -3.72582278e-03],
         [-4.41866107e-02,  1.03056775e-02, -1.26438877e-02, ...,
          -1.02431206e-02,  1.22008072e-02,  1.40913511e-02],
         [-6.34893868e-03, -2.90696812e-03,  1.93480067e-02, ...,
          -1.70395640e-03, -5.67261912e-02, -9.24234930e-03],
         ...,
         [-4.19146521e-03,  4.31229128e-03, -1.31375128e-02, ...,
          -2.96158320e-03, -1.00458218e-02, -1.17496643e-02],
         [ 6.97287731e-03, -4.67832424e-02, -2.43764073e-02, ...,
          -2.16248129e-02,  6.31391183e-02,  9.96467192e-04],
         [-1.92121249e-02, -6.95168180e-03, -8.76374356e-03, ...,
          -4.37382609e-03, -7.06549212e-02, -2.95107085e-02]]]],
      dtype=float32)],
 [array([ 0.1183386 , -0.69894797, -0.18756069,  0.59886277, -0.35055938,
       -0.24070533,  0.6260129 , -0.22752899,  0.44032362,  0.02186791,
       -0.4443756 ,  0.5127831 , -0.2174176 , -0.24499835,  0.18816823,
       -0.13840123,  0.2749581 , -0.49469855, -0.986849  , -0.5219002 ,
       -0.8346416 , -0.58693844, -0.10232547, -0.14691569, -0.45624262,
       -0.35062745, -0.48473933, -0.44083053,  0.09588186, -0.01428473,
       -0.45014068, -0.32537726, -0.7054787 , -0.6039787 ,  0.18994884,
       -0.8272498 , -0.4829884 , -0.17003086, -0.60631716, -1.2454454 ,
       -0.5070467 , -0.5222086 ,  0.989229  , -0.20072949, -1.2858037 ,
        0.47112814, -0.5575387 , -0.45798796, -0.4253268 , -0.64792   ,
       -0.5995917 , -0.6562765 ,  0.596814  , -1.2694147 , -0.7790428 ,
       -0.03067903,  0.35446423, -0.7512651 , -0.5031258 , -0.47434017,
       -0.9434794 , -0.12390947,  0.30944875, -0.79497117], dtype=float32),
  array([-1.8152965 ,  0.06335294,  0.09493171, -0.52985257, -1.2093347 ,
       -2.5735312 ,  1.2914039 , -1.5518106 ,  0.58429015, -2.114694  ,
       -0.19842708, -1.0751567 , -0.77058274, -1.524975  , -0.5970985 ,
        0.58916426,  1.6322278 , -0.2841488 ,  0.22106454, -2.1397948 ,
       -0.7004653 , -2.2247329 , -0.5993896 , -1.1046395 , -1.1285995 ,
       -0.18267262, -1.1801136 , -2.0229414 , -1.2734663 ,  1.4598806 ,
       -0.50109327,  0.828937  , -0.62440777, -2.3298144 , -0.3907022 ,
        1.0236307 , -1.1938503 ,  0.24060044, -0.37030807, -0.4058802 ,
       -0.20405766, -0.44066948,  1.2336965 , -1.4735323 ,  1.4148853 ,
        0.19134077, -0.12772532, -2.1773963 , -0.72394997, -1.5181158 ,
       -0.8874169 , -0.5364557 , -0.9032014 ,  1.2709997 , -2.5170052 ,
       -1.195183  , -0.49703526, -1.975574  , -0.29185715, -3.2875676 ,
       -0.50676715, -0.87240005,  0.7338714 , -1.3852599 ], dtype=float32),
  array([2.5698204 , 0.66106856, 0.9579445 , 3.7953117 , 0.78930616,
       1.6588279 , 2.7166836 , 0.8728792 , 2.4649897 , 1.6873833 ,
       0.62544334, 2.4520435 , 1.1677872 , 0.8765697 , 2.369395  ,
       1.1293129 , 1.5321841 , 0.9522551 , 0.8664995 , 0.9476584 ,
       0.5008311 , 0.7801711 , 1.2056912 , 1.2213385 , 0.68262607,
       0.76475054, 1.5219594 , 1.051242  , 1.3919619 , 1.5086124 ,
       0.7864975 , 0.7761151 , 0.6254974 , 0.7442268 , 1.1267039 ,
       0.89736253, 1.0401837 , 1.157632  , 1.4521195 , 0.637212  ,
       1.7071613 , 0.5259275 , 3.535474  , 1.6650641 , 1.7289643 ,
       1.4050996 , 0.9733603 , 0.63471615, 0.9250908 , 0.7634193 ,
       0.74622065, 1.3939565 , 2.925514  , 0.84779924, 0.9073462 ,
       1.1322318 , 3.0252135 , 0.69257617, 0.627715  , 1.0674183 ,
       0.4903834 , 1.5646087 , 1.6489512 , 0.85292786], dtype=float32)],
 [array([[[[-0.03246426, -0.03524504, -0.00211086, ..., -0.03529787,
           0.03614274, -0.05107487],
         [ 0.07874039,  0.06805429, -0.00069185, ...,  0.03729633,
           0.0221262 ,  0.03772637],
         [ 0.04951705,  0.00123358, -0.0080568 , ..., -0.01498195,
          -0.05351749,  0.08376196],
         ...,
         [-0.02116475,  0.0172743 ,  0.0395059 , ..., -0.00391781,
          -0.01951909,  0.02265538],
         [-0.01207819, -0.0408953 , -0.02359625, ...,  0.03145282,
          -0.03159337, -0.05633834],
         [ 0.11302262,  0.04698601,  0.06000297, ...,  0.09555398,
           0.07228433,  0.08828966]]]], dtype=float32)],
 [array([-0.02323023, -0.49747962, -0.5951112 , -0.2947332 ,  0.29573455,
       -0.00740606, -0.17019378,  0.5990775 , -0.34214282,  0.30743572,
        0.08725937, -0.3684931 , -0.14059132,  0.05279399, -0.5809623 ,
        0.42192334,  0.15062259, -0.10701424, -0.42688593, -0.22120845,
       -0.42821828, -0.807703  , -0.6590419 , -0.05587773, -0.2484322 ,
        0.00355652, -0.02653655, -0.2507528 , -0.21651056, -0.28745097,
        0.01382652,  0.00652034, -0.00322187, -0.1164664 ,  0.44478753,
        0.17020337,  1.0679475 ,  0.2899264 , -0.257319  , -0.16861564,
       -0.83140945,  0.95110685, -0.1679246 , -0.16497141, -0.18537456,
       -0.06724823, -0.44001606, -0.11348633, -0.22286254, -0.01171877,
        0.29728764,  0.6694918 , -0.07320365,  0.00827666, -0.02242358,
        0.8040736 , -0.43935657,  0.9123756 ,  0.5888269 , -0.00688621,
        0.43588397,  0.11412495,  0.01522017, -0.02256198], dtype=float32),
  array([ 0.7039395 ,  0.45981273,  0.77033967,  1.0711542 ,  0.11678132,
       -0.7308288 , -0.567383  , -0.3502806 , -0.5239492 ,  0.97255975,
       -0.09309233,  0.71372473,  0.47257164, -1.4981226 ,  0.7396899 ,
       -0.7789159 ,  0.70743364, -0.37388274,  0.09852199, -0.05047424,
        0.9947015 ,  1.037365  ,  0.3023155 ,  0.56067455, -1.3092461 ,
       -1.1895558 , -0.7465414 ,  1.9971826 ,  0.67284507,  0.60546845,
        0.05029901, -1.2987279 ,  0.42715564,  0.5279997 ,  1.0554874 ,
       -0.5712481 , -0.6517653 , -1.3140162 , -0.817939  , -0.81283176,
        0.7699105 , -0.6045527 , -0.8219679 ,  0.48798332, -1.329918  ,
        0.18577659,  0.35655603, -1.5681584 ,  1.2240777 ,  0.45007482,
       -1.4877605 , -1.9942597 , -1.6441473 , -1.0816447 , -1.0306114 ,
       -0.9004234 , -0.3974352 ,  0.31030613, -0.34123927,  1.2914598 ,
       -0.4960773 ,  1.389774  , -0.11901002,  0.3754256 ], dtype=float32),
  array([0.52621216, 0.22385065, 0.17365   , 0.8020296 , 0.5347697 ,
       0.31533444, 0.26370367, 0.6014952 , 0.2280542 , 0.41338792,
       0.31367177, 0.29897738, 0.4622738 , 0.54240537, 0.19471768,
       0.56126124, 0.38219118, 0.18818308, 0.31571302, 0.2286481 ,
       0.2126928 , 0.19912386, 0.20385112, 0.40464595, 0.24150784,
       0.2816207 , 0.31624082, 0.26508406, 0.19271319, 0.2967902 ,
       0.29254007, 0.32088378, 0.4179558 , 0.31158417, 0.5139355 ,
       0.5612907 , 0.9233843 , 0.41696718, 0.2279698 , 0.2510316 ,
       0.2957703 , 1.3527541 , 0.17421252, 0.19657648, 0.26415613,
       0.39257687, 0.22903688, 0.5428441 , 0.37668756, 0.36789978,
       0.45784912, 0.63099223, 0.6639388 , 0.4073299 , 0.32590657,
       0.78671694, 0.13063224, 0.83218193, 0.6138372 , 0.24350256,
       0.6906025 , 0.25600228, 0.3910104 , 0.33944845], dtype=float32)],
 [array([[[[-1.01186996e-02, -3.20487767e-02, -3.04091703e-02, ...,
          -1.66096371e-02, -1.12101454e-02, -3.11669204e-02],
         [-9.45454463e-03, -6.97516557e-03, -5.22385985e-02, ...,
          -8.05530045e-03,  3.67548577e-02, -1.46998214e-02],
         [-1.19401338e-02, -1.95797067e-02, -2.08333484e-03, ...,
          -5.65164164e-03, -2.82687088e-03,  1.03418985e-02],
         ...,
         [ 6.05780445e-03, -8.73035192e-03,  1.00068711e-02, ...,
          -1.17739774e-02, -1.31148994e-02,  2.21401937e-02],
         [ 2.64038215e-03,  8.11017677e-03, -8.64799134e-03, ...,
          -1.05106859e-02, -3.53779797e-05,  1.39725604e-03],
         [-6.82404311e-03, -3.10772005e-03, -1.17538590e-02, ...,
           6.95336051e-03, -1.82855874e-02, -9.14460979e-03]],

        [[-4.71450575e-03, -1.79234594e-02, -2.29590945e-02, ...,
          -2.50638253e-03, -2.23160703e-02,  1.41613847e-02],
         [-1.00038433e-02, -6.48306543e-03, -4.07772101e-02, ...,
          -6.77923113e-03,  3.11034434e-02,  8.66617355e-03],
         [-7.85542594e-04, -1.71712656e-02, -1.74739547e-02, ...,
          -7.11395172e-03, -8.60585179e-03,  9.53694899e-03],
         ...,
         [ 3.37200239e-03,  1.78146791e-02,  1.34475669e-02, ...,
          -1.63265504e-02, -6.65190667e-02,  2.61632372e-02],
         [ 1.57431420e-02,  3.50217819e-02,  2.66038086e-02, ...,
          -1.26999579e-02,  1.34694949e-03, -3.36801298e-02],
         [-1.19359372e-02,  3.57832424e-02, -2.76075993e-02, ...,
          -1.06411437e-02, -4.93443534e-02,  2.24981252e-02]],

        [[-8.63720756e-03, -2.20060768e-03, -6.50034193e-03, ...,
           7.51712359e-03, -2.69594695e-02, -2.38899346e-02],
         [-8.55684467e-03, -2.72470471e-02, -3.21538448e-02, ...,
           1.36308987e-02,  1.15264030e-02,  2.15722760e-03],
         [-2.71947170e-03, -2.03755852e-02, -1.16857085e-02, ...,
          -4.03415412e-03, -8.62812449e-04,  1.45764239e-02],
         ...,
         [-1.09781493e-02,  5.39887231e-03,  2.75999848e-02, ...,
          -2.00746711e-02, -4.45800181e-03,  2.86979112e-03],
         [ 7.62635749e-03,  1.96818896e-02,  5.31484652e-03, ...,
          -2.47822725e-03, -2.71730055e-03, -2.74187960e-02],
         [ 4.46111662e-03,  3.07783373e-02, -2.45364625e-02, ...,
           8.20361450e-03,  7.92766362e-03, -3.19846906e-02]]],


       [[[-8.72005243e-03,  1.67914317e-04, -8.76139849e-03, ...,
          -1.42258760e-02,  5.23411445e-02, -3.27952243e-02],
         [-8.74158088e-03,  2.15156861e-02, -5.48773035e-02, ...,
          -1.11269485e-02,  2.58517032e-03, -3.21554691e-02],
         [-4.59941383e-03,  3.03748045e-02, -1.38187995e-02, ...,
          -8.46297201e-03,  2.28604209e-02,  5.22445980e-03],
         ...,
         [-3.05643072e-03,  1.60684460e-03,  1.87997874e-02, ...,
          -9.18022078e-03,  1.05530526e-02,  1.10912602e-02],
         [-2.73013581e-03,  1.60050020e-02, -1.60593688e-02, ...,
          -1.53289111e-02, -1.68546755e-02,  2.05788407e-02],
         [ 8.08239565e-04, -3.88341257e-03, -2.53478251e-03, ...,
           6.58093626e-03, -2.32565440e-02,  1.41153354e-02]],

        [[-9.38184280e-03, -1.61778238e-02, -4.23342139e-02, ...,
          -2.01578550e-02,  4.41605784e-02, -2.36104000e-02],
         [-1.21078873e-02, -4.68523661e-03, -3.13707143e-02, ...,
          -9.97818634e-03,  1.02959936e-02, -1.67105664e-02],
         [-9.46793356e-04,  1.68357585e-02, -2.80824136e-02, ...,
          -4.92584007e-03, -2.40462124e-02, -1.44498469e-02],
         ...,
         [-6.26951037e-03, -8.14103521e-03,  1.42069263e-02, ...,
          -2.30986867e-02, -1.46291023e-02, -2.04555336e-02],
         [ 1.24092558e-02, -3.06254276e-03,  2.44108262e-03, ...,
          -7.02803815e-03, -4.72160503e-02, -2.06531212e-02],
         [-1.53351743e-02, -1.89726930e-02, -1.88388284e-02, ...,
          -8.21254216e-03,  4.75291796e-02,  5.36668710e-02]],

        [[-1.16205784e-02, -2.54372898e-02, -4.77513783e-02, ...,
          -5.29353786e-03, -5.57431467e-02, -1.23230899e-02],
         [-3.97465937e-03, -4.81109694e-03, -2.17829328e-02, ...,
           2.02736706e-02,  9.07231122e-03,  1.29000004e-02],
         [-2.25320458e-03, -3.67295626e-03, -1.99781749e-02, ...,
          -2.03594938e-03,  5.46615198e-03,  3.69515526e-03],
         ...,
         [-1.85285937e-02, -2.10984536e-02,  4.79237549e-03, ...,
          -2.26169769e-02, -2.54155193e-02,  1.56734623e-02],
         [ 1.14886453e-02, -6.51193317e-04, -5.27374912e-03, ...,
           1.19403852e-02, -1.20978523e-02, -1.18948612e-02],
         [ 3.73751670e-03, -1.67982522e-02, -2.77862865e-02, ...,
           7.57262344e-03, -1.47446361e-03, -2.59079295e-03]]],


       [[[-4.93548764e-03,  5.84008321e-02,  9.12688207e-03, ...,
           7.10650440e-03, -1.57811248e-03, -1.66580919e-02],
         [-1.01642590e-02,  1.28183113e-02, -2.20126435e-02, ...,
           1.23976124e-03, -3.93979140e-02, -2.00808812e-02],
         [-9.77280643e-03,  1.64615288e-02, -3.01045123e-02, ...,
           2.80092400e-03,  5.39029308e-04,  2.41636625e-03],
         ...,
         [-9.05195120e-05, -6.64041471e-03,  3.29893120e-02, ...,
           9.54695139e-03,  1.15654059e-03,  1.23936031e-02],
         [-1.07283033e-02, -2.69367304e-02, -3.94059606e-02, ...,
          -1.71713345e-02,  5.80838276e-03,  3.75809558e-02],
         [ 1.05566150e-02, -6.59396918e-03, -1.69894286e-02, ...,
           3.41450376e-03,  2.55357381e-02,  6.56677922e-03]],

        [[-9.47518926e-03,  5.23771308e-02, -2.43310928e-02, ...,
           3.65980144e-04,  8.36323202e-03, -3.17714624e-02],
         [-6.67618960e-03,  3.41328979e-03, -2.12692237e-03, ...,
           1.16320383e-02,  2.33070645e-03, -1.75623130e-02],
         [-2.90898257e-03, -1.15260966e-02, -2.89965030e-02, ...,
           3.41509492e-03,  1.28998384e-02, -4.02693311e-03],
         ...,
         [-2.75987061e-03,  6.74672611e-03,  1.63948927e-02, ...,
           1.86072029e-02, -3.03292237e-02, -1.83266178e-02],
         [-7.36490882e-04, -3.79033089e-02, -3.54957357e-02, ...,
          -1.69095933e-03, -1.65020290e-03,  3.23300883e-02],
         [-8.55495594e-03, -1.11875227e-02, -2.41795368e-02, ...,
          -4.70158225e-03,  6.42446876e-02,  2.10488886e-02]],

        [[-1.74955949e-02,  3.08963098e-02, -2.36267727e-02, ...,
          -9.71995585e-04,  1.92837548e-02, -1.17411343e-02],
         [ 2.91207177e-03,  7.83360098e-03,  1.34230673e-03, ...,
           1.58788934e-02, -3.10142916e-02,  1.03808218e-03],
         [-1.87790556e-05, -1.20212161e-03, -2.54855901e-02, ...,
          -4.05622739e-03,  1.86012150e-03,  8.91204644e-03],
         ...,
         [-1.42030129e-02,  7.92542100e-03,  2.05288501e-03, ...,
           1.04981475e-02,  1.43475989e-02, -5.55966469e-03],
         [ 6.65274821e-03,  6.20771246e-03, -1.77625082e-02, ...,
           1.20688705e-02,  1.04080886e-02,  2.40080133e-02],
         [-1.21537712e-03, -1.02838427e-02, -2.03306358e-02, ...,
           2.89603462e-03, -6.00890489e-04,  2.06039827e-02]]]],
      dtype=float32)],
 [array([-0.45898312, -0.00962233,  0.34094527, -0.33343485, -0.33732858,
       -0.51168513,  0.25522628, -0.02968269, -0.63341486,  0.26919046,
       -0.2670514 , -0.38229775, -0.4587566 ,  0.0147701 , -0.61550796,
       -0.3009621 , -0.07388245, -0.18911539, -0.35404557, -0.16923697,
       -0.26804805,  0.07929385, -0.3232994 ,  0.09523784, -0.22660221,
       -0.6515015 , -0.531008  , -0.5393312 , -0.13088553, -0.42951915,
       -0.24949329, -0.13617492, -0.18079044,  0.5171939 , -0.08780029,
       -0.28203544, -0.5942106 , -0.56271476, -0.6241824 , -0.6410396 ,
       -0.20970699, -0.09861349, -0.49057892, -0.5043995 , -0.37104204,
       -0.1340225 , -0.5470856 , -0.57597595, -0.06149809, -0.05483172,
       -0.21347593,  0.2903827 , -0.5024773 ,  0.11383913, -0.56425494,
        0.5268285 , -0.6314328 ,  0.37646344, -0.32466945, -0.21721375,
       -0.5629419 , -0.23968086,  0.0309252 , -0.38852945, -0.22696245,
       -0.35675853, -0.45371345, -0.19375372, -0.25611913, -0.69022644,
       -0.08401629,  0.4056415 , -0.6501845 , -0.76032984, -0.540072  ,
       -0.27819398, -0.00162414, -0.37868574, -0.6483463 , -0.51976246,
       -0.09554642, -0.4831999 , -0.20790218, -0.38478512, -0.26597   ,
       -0.00799849, -0.39059022, -0.46691093,  0.9625621 ,  0.37509066,
       -0.357023  ,  0.20481429, -0.30853727, -0.37162298, -0.05677523,
        0.07045025], dtype=float32),
  array([-0.09999148,  0.15677781, -0.4022663 , -0.36708036,  0.06064514,
       -0.4780026 , -0.5905626 , -0.8823561 , -1.2642376 , -0.43090504,
       -0.37434533, -0.38265634, -0.6781041 , -0.3178424 ,  0.6164138 ,
       -0.94845575, -0.73954844, -0.39244676, -0.5966727 , -0.30621168,
       -0.19289899, -0.9449104 , -0.21763311, -0.22932248, -0.06903181,
       -0.22784688, -1.9089038 , -0.17511888, -0.32421353, -0.66047597,
        0.14712888, -0.35400718, -0.41198567, -0.39080784, -0.09286647,
       -0.26846334, -0.8570455 , -0.10793237, -0.30519584, -0.16097327,
        0.3464001 ,  0.02783054, -0.68165797, -0.15611087,  0.31227025,
       -0.07671067, -0.01807006,  0.12375205, -0.12025543, -1.059571  ,
        0.54305094, -0.46481234, -0.42260444, -0.8074948 , -0.6099105 ,
       -0.22932826, -0.51866925, -0.3727734 , -0.22601728, -0.35909897,
       -0.3139211 , -0.894219  , -0.33788487, -0.42896917, -0.43310308,
        0.3927508 , -0.11657182, -0.15410882,  0.20081457,  0.6014949 ,
       -0.5044284 , -0.6649995 , -0.37516192,  0.34030744, -1.6728855 ,
        0.03432091, -0.03593628, -0.68247885, -0.08378702, -0.09446945,
       -0.18927296, -0.63312495,  0.13416867, -0.22407025, -0.42980364,
       -0.95515275, -0.8881754 , -1.0375793 ,  0.039669  , -0.22767793,
       -0.31605628, -0.735041  ,  0.15910265, -0.176932  , -0.4343034 ,
        0.02457829], dtype=float32),
  array([0.3407805 , 0.25099802, 0.65931994, 0.26152498, 0.3528598 ,
       0.3097689 , 0.45800862, 0.55081075, 0.35873416, 0.4473742 ,
       0.31057113, 0.26843253, 0.88903576, 0.21884999, 0.47693226,
       0.47417042, 0.29028767, 0.18242586, 0.32547167, 0.32242373,
       0.25384745, 0.45237324, 0.25637177, 0.19892804, 0.2806733 ,
       0.3363766 , 0.32006267, 0.23256192, 0.41677436, 0.21927364,
       0.2401363 , 0.26160902, 0.25710502, 0.3651356 , 0.2563444 ,
       0.20524131, 0.19652459, 0.29439485, 0.69589496, 0.20741025,
       0.3265775 , 0.27410334, 0.20636372, 0.6863689 , 0.21928674,
       0.19078377, 0.22941694, 0.21873057, 0.207471  , 0.72256416,
       0.35868326, 0.64454454, 0.3465189 , 0.29025108, 0.13813616,
       0.28226534, 0.16356176, 0.32115275, 0.33551922, 0.27409315,
       0.20646653, 0.2334003 , 0.32673082, 0.4415201 , 0.18939933,
       0.30606714, 0.22864258, 0.24901186, 0.34098616, 0.3036637 ,
       0.40988013, 0.5981694 , 0.23583335, 0.5172265 , 0.32480213,
       0.32288948, 0.36346015, 0.4802415 , 0.30012172, 0.22730574,
       0.2752961 , 0.20492719, 0.25275028, 0.29357022, 0.25346485,
       0.8493357 , 0.78411937, 0.20049442, 0.40593874, 0.24199568,
       0.24156447, 0.3540049 , 0.25777385, 0.2663737 , 0.24660924,
       0.3921141 ], dtype=float32)],
 [array([[[[ 2.48530204e-03, -1.23265535e-02,  4.39271005e-03, ...,
          -1.12530747e-02,  2.54887482e-03, -1.58099383e-02],
         [ 3.11584249e-02, -3.35684116e-03,  4.42693615e-03, ...,
          -1.94480382e-02, -1.01639470e-02, -4.41832468e-03],
         [ 1.94998346e-02,  1.13583459e-02,  5.35669504e-03, ...,
           1.37102802e-03, -1.51320882e-02,  1.00034736e-02],
         ...,
         [-1.24538401e-02,  6.06520381e-03, -4.72545391e-03, ...,
          -1.26424627e-02, -2.21508974e-03,  3.43967811e-03],
         [-5.06898854e-03,  1.05814161e-02, -2.18408778e-02, ...,
           1.08391023e-05, -3.11902054e-02,  1.63710807e-02],
         [ 5.21531375e-03,  4.09108168e-03, -1.01192864e-02, ...,
          -7.85379764e-03,  3.93660041e-03,  4.69333353e-03]],

        [[ 8.54983833e-03, -1.01505267e-02, -2.96848593e-03, ...,
          -1.24928672e-02,  3.96911928e-04, -7.46741518e-03],
         [ 4.69643017e-03,  1.46243917e-02, -1.47310430e-02, ...,
          -2.77967695e-02, -1.72444098e-02,  4.15941235e-03],
         [ 9.98727884e-03,  1.68969743e-02,  5.19724388e-04, ...,
           1.94393080e-02, -2.92820763e-02,  3.29585560e-03],
         ...,
         [-1.41322063e-02,  4.34816070e-03, -3.14623164e-03, ...,
          -3.28482781e-03, -5.94296434e-04, -6.24888856e-03],
         [-1.15984110e-02, -1.72758754e-02,  6.69175992e-03, ...,
           1.65874534e-03,  1.83538310e-02,  3.71628697e-03],
         [ 2.38895789e-02,  1.23799837e-03,  1.00151391e-03, ...,
          -2.16927696e-02, -7.88133126e-03,  7.91955180e-03]],

        [[ 1.14319781e-02,  5.87497605e-04, -5.95428469e-03, ...,
          -3.30095552e-03, -1.56033109e-03, -5.62512781e-03],
         [ 1.95696740e-03,  6.89617870e-03, -1.25010991e-02, ...,
          -1.49878915e-02, -8.73630401e-03, -8.20962596e-04],
         [-2.34454591e-03,  6.29374711e-03, -4.08298802e-03, ...,
           2.29777228e-02, -1.83360465e-02,  6.63648359e-04],
         ...,
         [-9.19391215e-03,  4.75134980e-03, -8.40991829e-03, ...,
          -3.02788685e-05, -3.68836639e-03, -7.69589748e-03],
